FANN_FLO_2.1
num_layers=3
learning_rate=0.500000
connection_rate=1.000000
network_type=0
learning_momentum=0.000000
training_algorithm=0
train_error_function=1
train_stop_function=0
cascade_output_change_fraction=0.010000
quickprop_decay=-0.000100
quickprop_mu=1.750000
rprop_increase_factor=1.200000
rprop_decrease_factor=0.500000
rprop_delta_min=0.000000
rprop_delta_max=50.000000
rprop_delta_zero=0.100000
cascade_output_stagnation_epochs=12
cascade_candidate_change_fraction=0.010000
cascade_candidate_stagnation_epochs=12
cascade_max_out_epochs=150
cascade_min_out_epochs=50
cascade_max_cand_epochs=150
cascade_min_cand_epochs=50
cascade_num_candidate_groups=2
bit_fail_limit=3.49999999999999980000e-001
cascade_candidate_limit=1.00000000000000000000e+003
cascade_weight_multiplier=4.00000000000000020000e-001
cascade_activation_functions_count=10
cascade_activation_functions=3 5 7 8 10 11 14 15 16 17 
cascade_activation_steepnesses_count=4
cascade_activation_steepnesses=2.50000000000000000000e-001 5.00000000000000000000e-001 7.50000000000000000000e-001 1.00000000000000000000e+000 
layer_sizes=61 61 3 
scale_included=0
neurons (num_inputs, activation_function, activation_steepness)=(0, 0, 0.00000000000000000000e+000) (0, 0, 0.00000000000000000000e+000) (0, 0, 0.00000000000000000000e+000) (0, 0, 0.00000000000000000000e+000) (0, 0, 0.00000000000000000000e+000) (0, 0, 0.00000000000000000000e+000) (0, 0, 0.00000000000000000000e+000) (0, 0, 0.00000000000000000000e+000) (0, 0, 0.00000000000000000000e+000) (0, 0, 0.00000000000000000000e+000) (0, 0, 0.00000000000000000000e+000) (0, 0, 0.00000000000000000000e+000) (0, 0, 0.00000000000000000000e+000) (0, 0, 0.00000000000000000000e+000) (0, 0, 0.00000000000000000000e+000) (0, 0, 0.00000000000000000000e+000) (0, 0, 0.00000000000000000000e+000) (0, 0, 0.00000000000000000000e+000) (0, 0, 0.00000000000000000000e+000) (0, 0, 0.00000000000000000000e+000) (0, 0, 0.00000000000000000000e+000) (0, 0, 0.00000000000000000000e+000) (0, 0, 0.00000000000000000000e+000) (0, 0, 0.00000000000000000000e+000) (0, 0, 0.00000000000000000000e+000) (0, 0, 0.00000000000000000000e+000) (0, 0, 0.00000000000000000000e+000) (0, 0, 0.00000000000000000000e+000) (0, 0, 0.00000000000000000000e+000) (0, 0, 0.00000000000000000000e+000) (0, 0, 0.00000000000000000000e+000) (0, 0, 0.00000000000000000000e+000) (0, 0, 0.00000000000000000000e+000) (0, 0, 0.00000000000000000000e+000) (0, 0, 0.00000000000000000000e+000) (0, 0, 0.00000000000000000000e+000) (0, 0, 0.00000000000000000000e+000) (0, 0, 0.00000000000000000000e+000) (0, 0, 0.00000000000000000000e+000) (0, 0, 0.00000000000000000000e+000) (0, 0, 0.00000000000000000000e+000) (0, 0, 0.00000000000000000000e+000) (0, 0, 0.00000000000000000000e+000) (0, 0, 0.00000000000000000000e+000) (0, 0, 0.00000000000000000000e+000) (0, 0, 0.00000000000000000000e+000) (0, 0, 0.00000000000000000000e+000) (0, 0, 0.00000000000000000000e+000) (0, 0, 0.00000000000000000000e+000) (0, 0, 0.00000000000000000000e+000) (0, 0, 0.00000000000000000000e+000) (0, 0, 0.00000000000000000000e+000) (0, 0, 0.00000000000000000000e+000) (0, 0, 0.00000000000000000000e+000) (0, 0, 0.00000000000000000000e+000) (0, 0, 0.00000000000000000000e+000) (0, 0, 0.00000000000000000000e+000) (0, 0, 0.00000000000000000000e+000) (0, 0, 0.00000000000000000000e+000) (0, 0, 0.00000000000000000000e+000) (0, 0, 0.00000000000000000000e+000) (61, 3, 5.00000000000000000000e-001) (61, 3, 5.00000000000000000000e-001) (61, 3, 5.00000000000000000000e-001) (61, 3, 5.00000000000000000000e-001) (61, 3, 5.00000000000000000000e-001) (61, 3, 5.00000000000000000000e-001) (61, 3, 5.00000000000000000000e-001) (61, 3, 5.00000000000000000000e-001) (61, 3, 5.00000000000000000000e-001) (61, 3, 5.00000000000000000000e-001) (61, 3, 5.00000000000000000000e-001) (61, 3, 5.00000000000000000000e-001) (61, 3, 5.00000000000000000000e-001) (61, 3, 5.00000000000000000000e-001) (61, 3, 5.00000000000000000000e-001) (61, 3, 5.00000000000000000000e-001) (61, 3, 5.00000000000000000000e-001) (61, 3, 5.00000000000000000000e-001) (61, 3, 5.00000000000000000000e-001) (61, 3, 5.00000000000000000000e-001) (61, 3, 5.00000000000000000000e-001) (61, 3, 5.00000000000000000000e-001) (61, 3, 5.00000000000000000000e-001) (61, 3, 5.00000000000000000000e-001) (61, 3, 5.00000000000000000000e-001) (61, 3, 5.00000000000000000000e-001) (61, 3, 5.00000000000000000000e-001) (61, 3, 5.00000000000000000000e-001) (61, 3, 5.00000000000000000000e-001) (61, 3, 5.00000000000000000000e-001) (61, 3, 5.00000000000000000000e-001) (61, 3, 5.00000000000000000000e-001) (61, 3, 5.00000000000000000000e-001) (61, 3, 5.00000000000000000000e-001) (61, 3, 5.00000000000000000000e-001) (61, 3, 5.00000000000000000000e-001) (61, 3, 5.00000000000000000000e-001) (61, 3, 5.00000000000000000000e-001) (61, 3, 5.00000000000000000000e-001) (61, 3, 5.00000000000000000000e-001) (61, 3, 5.00000000000000000000e-001) (61, 3, 5.00000000000000000000e-001) (61, 3, 5.00000000000000000000e-001) (61, 3, 5.00000000000000000000e-001) (61, 3, 5.00000000000000000000e-001) (61, 3, 5.00000000000000000000e-001) (61, 3, 5.00000000000000000000e-001) (61, 3, 5.00000000000000000000e-001) (61, 3, 5.00000000000000000000e-001) (61, 3, 5.00000000000000000000e-001) (61, 3, 5.00000000000000000000e-001) (61, 3, 5.00000000000000000000e-001) (61, 3, 5.00000000000000000000e-001) (61, 3, 5.00000000000000000000e-001) (61, 3, 5.00000000000000000000e-001) (61, 3, 5.00000000000000000000e-001) (61, 3, 5.00000000000000000000e-001) (61, 3, 5.00000000000000000000e-001) (61, 3, 5.00000000000000000000e-001) (61, 3, 5.00000000000000000000e-001) (0, 3, 0.00000000000000000000e+000) (61, 3, 5.00000000000000000000e-001) (61, 3, 5.00000000000000000000e-001) (0, 3, 0.00000000000000000000e+000) 
connections (connected_to_neuron, weight)=(0, 4.78313381340268020000e-001) (1, -2.27343240799170200000e-001) (2, -2.01279105473903740000e-001) (3, -1.16690725674500440000e-001) (4, 5.87178798718644280000e-002) (5, -3.74388769800326850000e-003) (6, 1.64489748544838220000e-002) (7, -4.85725908488656820000e-001) (8, -6.50843932250495110000e-002) (9, -2.54613939228414190000e-001) (10, -1.41196678536537200000e-001) (11, -7.75865881757262510000e-002) (12, -9.82896344579425320000e-002) (13, 3.86239919213883510000e-003) (14, -4.21668145481708530000e-002) (15, -1.03658348115111430000e-001) (16, -8.45864307897939430000e-002) (17, 5.93997380259162700000e-002) (18, -6.32616119132906330000e-002) (19, -5.62366768365202160000e-001) (20, -2.80398313597332860000e-001) (21, -3.44184607834120360000e-001) (22, -6.94410143305951630000e-001) (23, -3.68595350313349000000e-001) (24, -2.27708327127724320000e-001) (25, -1.76141158397681820000e-001) (26, -9.29479421099864700000e-002) (27, 3.28685239627323770000e-002) (28, -1.26953126891748980000e-002) (29, -2.54516605355092910000e-003) (30, -5.48256701933195420000e-001) (31, -1.13403401557100510000e-001) (32, -2.29820638973384200000e-001) (33, -1.43502612590647070000e-002) (34, 2.19024149011160280000e-002) (35, 9.26610682179979630000e-003) (36, 4.91638190919729820000e-002) (37, -5.02641905741325890000e-002) (38, -1.33759869596191040000e-002) (39, -2.04485124057141950000e-001) (40, -3.81258813183769220000e-002) (41, -7.06986950122364820000e-002) (42, -6.34005435858720490000e-002) (43, 1.71889628527860730000e-002) (44, -1.96426236512785290000e-002) (45, -5.35588116428636140000e-002) (46, -7.81376086743413990000e-002) (47, -3.72625004388261320000e-002) (48, -7.95383588150303940000e-002) (49, -3.34437341293857270000e-001) (50, -2.62460964705172880000e-001) (51, -7.94054980161202630000e-002) (52, -8.80951930125299270000e-001) (53, -2.84660475347478290000e-001) (54, -2.81217128113341540000e-001) (55, 7.51195073777499580000e-002) (56, -4.78067516990435610000e-002) (57, 4.37861807667893270000e-002) (58, 5.07385261466879460000e-002) (59, 6.43005380675276680000e-002) (60, -1.90913719179142420000e+000) (0, 1.94657486217584140000e-001) (1, -2.09132714188844490000e-001) (2, -3.61899371901171660000e-001) (3, -2.63715456151811590000e-002) (4, -9.03512521067225960000e-002) (5, -1.04014175155083570000e-001) (6, -3.50646977881297060000e-002) (7, -3.99890787051165260000e-001) (8, 1.49177893149716480000e-002) (9, -2.07332599425486510000e-001) (10, -7.75493835254265210000e-002) (11, 2.37789871435035130000e-003) (12, -6.57446678998761940000e-002) (13, -5.30642325865177470000e-002) (14, -7.15261430745056660000e-003) (15, -8.82988301914130470000e-002) (16, 2.14430994383826710000e-002) (17, -1.45615024870730040000e-002) (18, -5.27457814957756270000e-002) (19, -5.68225982883501460000e-001) (20, -3.89427662766272050000e-001) (21, -3.23548741058314710000e-001) (22, -6.22377551403915150000e-001) (23, -3.58175310585286950000e-001) (24, -1.24814754666917510000e-001) (25, -1.62389731743291490000e-001) (26, 1.18323430342447780000e-002) (27, -2.49499167025537950000e-002) (28, 3.80493169732289970000e-002) (29, -4.98779304307390700000e-002) (30, -3.40647844047307750000e-001) (31, -2.24877721196478390000e-001) (32, -1.72568027483700040000e-001) (33, -1.53683823612934630000e-003) (34, -4.43077030319737610000e-002) (35, 1.35256323395464310000e-001) (36, -4.03503423981419470000e-002) (37, 3.14657623743874950000e-002) (38, -2.53152051062802590000e-002) (39, -1.12666811929479760000e-001) (40, 2.51696910618545950000e-002) (41, -8.69433734768594170000e-002) (42, -9.82340225383021290000e-002) (43, 9.36206745827515700000e-002) (44, 3.72639902675526440000e-002) (45, 4.21957139263244640000e-002) (46, -4.40998382429705140000e-002) (47, 6.03418186644422840000e-002) (48, 3.43487441379059930000e-002) (49, -2.20911454258794020000e-001) (50, -2.62125130450058360000e-001) (51, -2.64452416879988720000e-001) (52, -8.83787488536474260000e-001) (53, -3.72297404710350890000e-001) (54, -2.61591293720858710000e-001) (55, -1.08170474140377310000e-001) (56, 3.59425461697317140000e-002) (57, -5.11686012856899940000e-002) (58, 8.08044445634550360000e-002) (59, -9.65698256577525170000e-002) (60, -1.90211188466525830000e+000) (0, -9.61305031541300200000e-001) (1, -1.11046800614933880000e+000) (2, -2.02442657239415440000e+000) (3, -4.01347066942025540000e-001) (4, 5.39706742135654840000e-001) (5, -2.62063557529928330000e-001) (6, 7.78320324097876440000e-002) (7, -1.22387744009388370000e+000) (8, -3.79639699374961000000e-001) (9, -1.07014102027343870000e+000) (10, -3.92788696701178830000e-001) (11, -3.81825618838318560000e-001) (12, -1.24876700919392820000e-001) (13, 1.29204745751513810000e-001) (14, -1.35192391827732520000e-001) (15, -4.87682387303554070000e-001) (16, -3.29256720988791830000e-001) (17, 9.23364209886807020000e-003) (18, 4.00581214595791820000e-002) (19, -6.16008696692604720000e-001) (20, -2.73507413726778170000e-001) (21, -6.51541214701179980000e-001) (22, -1.72814276431797560000e+000) (23, 2.78797562342443020000e-001) (24, -6.16825698432597270000e-001) (25, -4.13971112747546780000e-001) (26, -4.59765637883065630000e-001) (27, 2.07110994740990820000e-001) (28, -6.22314462398207980000e-002) (29, -1.15539552502923470000e-002) (30, 1.58339508231262840000e+000) (31, 1.75821041079267350000e-001) (32, 3.17426943644057720000e+000) (33, 1.79490435384682460000e-001) (34, -2.38206072919626200000e-004) (35, -4.60659679373726090000e-003) (36, 4.78515632130438460000e-003) (37, -8.13503665192351900000e-002) (38, -5.12769244045667040000e-001) (39, -4.86099125676914660000e-001) (40, -2.13604973909127190000e-001) (41, 1.69825393460055240000e-001) (42, 2.16968816703808080000e-002) (43, -1.20021690977481450000e-002) (44, -2.17597089266117700000e-001) (45, -3.67705309966501800000e-001) (46, 2.11232218571509450000e-001) (47, 5.81370363361947900000e-002) (48, 1.61555622754133990000e-002) (49, 7.45427308598886700000e-003) (50, -1.87233426317487460000e-001) (51, -6.62809612997323330000e-001) (52, -2.92440330832451020000e-001) (53, 4.01594322339243300000e-001) (54, -4.63800564712041340000e-001) (55, -1.03858616306707980000e+000) (56, -1.54970655882877810000e-001) (57, 1.65583960318199110000e-001) (58, 4.18823248428452640000e-002) (59, -1.37878420023298530000e-002) (60, -3.76537839077045790000e+000) (0, -6.37420937319967630000e-001) (1, -4.10531677871854020000e-001) (2, -5.21355549089248420000e-001) (3, -3.25424112149224130000e-002) (4, -2.23494402849651260000e-002) (5, -7.00318856585636360000e-002) (6, 8.12194836321396000000e-002) (7, -4.34495634426884380000e-001) (8, -1.01836931399982550000e-001) (9, -2.29198217432306890000e-001) (10, -1.11449678501451740000e-001) (11, -1.29300685675049820000e-001) (12, -4.88678816587789360000e-002) (13, -1.08728051223533870000e-003) (14, -5.52351850735366340000e-002) (15, -1.32542550572928990000e-001) (16, -1.41021823448680000000e-002) (17, 6.39425665180245320000e-002) (18, -1.66692460016570100000e-002) (19, -4.51875454268409860000e-001) (20, -2.85598443340125300000e-001) (21, -3.73524561372696180000e-001) (22, -5.88948409757031330000e-001) (23, -4.19163766344533010000e-001) (24, -2.96400130239550590000e-001) (25, -1.81054746054897600000e-001) (26, -1.08200428414671200000e-001) (27, 3.64220195516688980000e-002) (28, 5.06347663795168050000e-002) (29, 3.98559576251500400000e-003) (30, 5.84836987216698740000e-001) (31, -1.25410836060136530000e-001) (32, 5.15488172239288580000e-002) (33, -1.14205029145584540000e-001) (34, -3.62371151094273150000e-002) (35, -5.48077111528339970000e-002) (36, -9.94567885913966170000e-002) (37, -6.40603155519607060000e-002) (38, -1.63641544483065230000e-001) (39, -3.76403333043293380000e-001) (40, -1.04740964185740540000e-001) (41, -6.57617709953423470000e-002) (42, -5.28049919297145510000e-002) (43, -7.63533985772648920000e-002) (44, 4.26700169962389570000e-002) (45, -1.45662244603177530000e-001) (46, 5.84460762023952390000e-002) (47, 3.70338078657983790000e-002) (48, -4.52380279632468990000e-002) (49, -3.16867313392661390000e-001) (50, -3.17859151381548800000e-001) (51, -3.03835682580225420000e-001) (52, -7.78333075287372060000e-001) (53, -3.61372107335568460000e-001) (54, -1.84842068679661800000e-001) (55, -7.71317914164097310000e-002) (56, -6.90841859578909260000e-002) (57, 3.59046671379052370000e-002) (58, -8.21472180209639190000e-002) (59, 5.74096688242207160000e-002) (60, -1.84642293014884040000e+000) (0, 6.50632296256784090000e-001) (1, -2.55927577024983420000e-001) (2, -3.56303343274996800000e-001) (3, -3.24927255029096450000e-002) (4, 6.68525040474036300000e-002) (5, 2.01944375212729370000e-002) (6, -7.81188976484372690000e-002) (7, -4.24236453385887720000e-001) (8, 3.38593255343598370000e-002) (9, -4.21492706780140390000e-001) (10, -1.25914890109180920000e-001) (11, -6.84714122320794210000e-002) (12, 2.65192463691456270000e-002) (13, -6.61803321432524180000e-002) (14, -1.21453565243617600000e-002) (15, 5.18465958619279130000e-002) (16, 1.78680693416635830000e-002) (17, -6.35532186906727780000e-002) (18, -5.16528655669471000000e-002) (19, -6.68758206599846860000e-001) (20, -3.95658650144515180000e-001) (21, -4.22517114888023900000e-001) (22, -7.26574917950554730000e-001) (23, -4.40778056047631260000e-001) (24, -1.43364157781813580000e-001) (25, -1.52105080463948110000e-001) (26, -1.64251184164300260000e-001) (27, -5.89411598492534660000e-002) (28, 1.87438967636808230000e-002) (29, -1.86584475436575300000e-002) (30, -5.23650050368289820000e-001) (31, -2.64035935197513670000e-001) (32, -3.73094058179127220000e-001) (33, -2.73874920986771470000e-003) (34, -3.62534361053552310000e-002) (35, 7.81556438325420040000e-002) (36, 7.81250011641532180000e-003) (37, 1.79049754796415520000e-001) (38, -9.94314948216390440000e-002) (39, -1.05460371592764570000e-001) (40, 7.80552389605333880000e-002) (41, -3.31969311658397640000e-002) (42, -1.51406700089229350000e-002) (43, 7.08314165340406250000e-002) (44, 8.31674522231374940000e-003) (45, -9.08224212059691450000e-002) (46, 6.18479785799206930000e-002) (47, -8.37110341821547950000e-002) (48, -3.73066510139618420000e-002) (49, -1.04806191977067790000e-001) (50, -1.20379657731765500000e-001) (51, -2.98554148310588740000e-001) (52, -1.06568736937721020000e+000) (53, -2.40536962905333360000e-001) (54, -4.33689273682784370000e-001) (55, -8.61848551055888060000e-002) (56, -9.28321570820532100000e-002) (57, 1.00432351810945220000e-002) (58, -6.04858407450592490000e-003) (59, -5.24292000000059490000e-002) (60, -1.89180422488123630000e+000) (0, -4.99771250585749890000e-001) (1, -2.42303108757068870000e-001) (2, -5.06517669660117580000e-001) (3, 2.66113568580584200000e-003) (4, -2.93319731539284090000e-002) (5, -4.72871792272932180000e-002) (6, 1.33422853550655420000e-002) (7, -3.15391715194077490000e-001) (8, -1.28943480018270300000e-001) (9, -1.28554972277882300000e-002) (10, -1.22209918578333110000e-003) (11, -2.15673177353378350000e-001) (12, 7.76312139507911170000e-002) (13, 1.01579304166012100000e-001) (14, -7.11292797216381690000e-002) (15, 1.81896001118804700000e-002) (16, -9.69716959256562980000e-002) (17, -3.62032535577864050000e-002) (18, -7.54771233928495520000e-002) (19, -4.30267099185236760000e-001) (20, -3.66564968441636720000e-001) (21, -4.66467793289930430000e-001) (22, -6.71319276224902840000e-001) (23, -3.84149972791506870000e-001) (24, -4.12619490732672840000e-001) (25, -1.62991820734416590000e-001) (26, -9.10926442610127400000e-002) (27, -6.55926287124144330000e-002) (28, 1.11755372759034800000e-002) (29, 5.02441413736960380000e-002) (30, 4.25986406206867510000e-001) (31, -4.99358056920827240000e-002) (32, 1.43816763318052250000e-003) (33, -7.36066669692445050000e-002) (34, 1.13529394061405530000e-001) (35, 6.33700986325093500000e-002) (36, 3.84887701047773590000e-002) (37, -1.92486518831589430000e-001) (38, -4.20849924065139980000e-002) (39, -4.16744746480027910000e-001) (40, -1.03527975332248400000e-001) (41, 7.10834432399672700000e-003) (42, -3.24370009005927470000e-002) (43, -1.21133759275459250000e-001) (44, 2.66421198394222110000e-002) (45, 2.49118826423379950000e-002) (46, -2.83560257448892720000e-002) (47, -8.46897041516502250000e-002) (48, 2.34735381498909870000e-002) (49, -1.46372700081497410000e-001) (50, -3.47977284465997410000e-001) (51, -1.30024021646125280000e-001) (52, -7.07965628723024490000e-001) (53, -2.28617667197418250000e-001) (54, -1.43266982265276760000e-001) (55, -1.09774511044139860000e-001) (56, -1.52414517014534230000e-001) (57, -1.03462404111014540000e-001) (58, -6.46972665890643840000e-003) (59, -8.62915051920936090000e-002) (60, -1.90559175083104600000e+000) (0, 1.25421234854195030000e+000) (1, -2.81353129875682510000e-001) (2, -3.40685901193660270000e-001) (3, -7.81591389158432380000e-002) (4, 5.67359409293726680000e-002) (5, -9.45581552336004910000e-002) (6, -2.26501468218884840000e-002) (7, -1.06016332009184700000e+000) (8, -1.99357991195789590000e-001) (9, -2.38582469096679930000e-002) (10, -2.72631517581129520000e-001) (11, -1.72990474195665460000e-001) (12, 2.28497052289757340000e-001) (13, -7.67969833008515510000e-002) (14, -8.42257857100341540000e-002) (15, -2.14876419280106910000e-002) (16, -8.14146433204915170000e-002) (17, 2.02398916088122220000e-002) (18, 3.79083157115754840000e-002) (19, -7.26252063626968810000e-001) (20, -1.58581050266234150000e-001) (21, -1.66084124518168670000e-001) (22, -6.09649250304936880000e-001) (23, 2.97631863006498770000e-002) (24, 6.83066365932331750000e-002) (25, 2.56360687573962440000e-002) (26, -9.83830335936285020000e-002) (27, 2.48339762285382280000e-003) (28, 7.82348644470403090000e-002) (29, -8.07067883119998440000e-002) (30, -9.83108206768933850000e-001) (31, -8.82894898677132890000e-002) (32, -8.02752858182434360000e-001) (33, -1.28082276907563290000e-002) (34, -7.83775608976114290000e-002) (35, 1.53780863057204180000e-001) (36, 5.52368172293427050000e-003) (37, 2.22367277146483990000e-001) (38, -6.95116890767046720000e-002) (39, -6.53789309971450570000e-001) (40, -1.15701706484922740000e-001) (41, -1.39762070595675250000e-001) (42, -3.91212106577396510000e-002) (43, -1.10699416439378790000e-001) (44, 1.93597318958120160000e-002) (45, -1.13920945928661480000e-001) (46, 6.67775665931691870000e-003) (47, -5.01089404098210760000e-003) (48, -9.28607148324112340000e-002) (49, -2.75115082654722340000e-001) (50, -2.42983546234988520000e-001) (51, -1.31815050477605220000e-001) (52, -7.99971231815808090000e-001) (53, 1.40208176673234990000e-001) (54, -4.58760923885618570000e-001) (55, 7.77794256370116370000e-002) (56, -1.45468164790813730000e-001) (57, 3.42741018248539710000e-002) (58, 9.96032729685794040000e-002) (59, -6.21154794412177580000e-002) (60, -2.07427545531566390000e+000) (0, 1.32591705937665800000e+000) (1, -4.49883463939891370000e-001) (2, -1.95307439184971120000e-001) (3, -1.07963667845370380000e-001) (4, 9.88560935066479660000e-002) (5, -1.31987086308352320000e-001) (6, -7.81860363213127130000e-003) (7, -6.56957990440884210000e-001) (8, 7.63125083384520870000e-002) (9, 1.88865003294484410000e-001) (10, -3.51429639159572820000e-002) (11, -1.93052787880468010000e-001) (12, 6.58711811400092830000e-002) (13, -1.23105983624455230000e-001) (14, -5.09256811050622370000e-002) (15, 1.05871518523489900000e-002) (16, -8.45082321718631890000e-003) (17, 6.00835175591251800000e-002) (18, -2.44716416715973390000e-002) (19, -6.93695198140388160000e-001) (20, -1.72281050043718190000e-001) (21, -3.05860723562196620000e-001) (22, -5.19998397532201670000e-001) (23, -4.76088773549625190000e-002) (24, 2.04923622148567740000e-001) (25, -5.62284464087773120000e-002) (26, 7.94907546181936740000e-002) (27, 2.60201677466384870000e-002) (28, 9.86633315483231850000e-002) (29, 5.60363777881320860000e-002) (30, -9.36566959966178450000e-001) (31, -5.45505555101087000000e-001) (32, -4.28745585154298170000e-001) (33, 1.79213973854735230000e-001) (34, -7.98957440114647230000e-002) (35, 1.08208153540004510000e-001) (36, 8.24829113853411400000e-002) (37, -2.63420970354755870000e-001) (38, -2.12241316649090970000e-003) (39, -2.91630421819950300000e-001) (40, -1.47927827333222240000e-003) (41, -6.79812176349684360000e-002) (42, 8.37649760667436710000e-003) (43, -5.68273178403708580000e-002) (44, -4.85774632267006390000e-002) (45, -1.73740342588290770000e-001) (46, -6.15073926953338230000e-003) (47, -8.92588782508591670000e-002) (48, 2.24058546830531170000e-002) (49, -3.41013410969574600000e-001) (50, -1.11930019075913750000e-001) (51, -1.72857541334396510000e-001) (52, -9.96797072715954190000e-001) (53, -6.25822148868950820000e-001) (54, 6.16845031897795130000e-002) (55, 1.81421942781632870000e-001) (56, -3.85167366872397680000e-002) (57, -7.37645113263948600000e-002) (58, 8.82751477997771870000e-002) (59, 3.30322270547185330000e-002) (60, -2.08636840004638510000e+000) (0, 6.07119116134438470000e+000) (1, 9.83429895621805720000e-001) (2, 2.99960427981468940000e+000) (3, 1.57708947685894050000e+000) (4, 8.42812615207910730000e-001) (5, 7.86789637395621690000e-001) (6, 6.76208506170041800000e-002) (7, -6.12376143940680740000e-001) (8, -1.90556683794772440000e+000) (9, 2.31042372327373540000e-001) (10, 1.54198826731972490000e-001) (11, -9.98836207080025960000e-001) (12, 2.16255739555436780000e-002) (13, 9.39546673726469740000e-002) (14, -2.62207965287653550000e-001) (15, -2.27201267402454890000e-001) (16, 7.04888698777240810000e-001) (17, 1.50964649450073460000e-001) (18, -5.03193227356293380000e-003) (19, -2.88509214587651860000e+000) (20, 3.43939864040811340000e-001) (21, -1.16536151599835170000e+000) (22, -1.64144476285662950000e-001) (23, 1.87105381897141400000e-001) (24, 8.87608687618338440000e-001) (25, -1.55476310003896420000e-001) (26, 5.91242117138392750000e-002) (27, 8.41740770543982080000e-002) (28, -1.55822756228189970000e-002) (29, -7.59887706635709040000e-003) (30, -1.94551071185776880000e+000) (31, 1.51460550973408380000e-001) (32, -4.05363152636932430000e+000) (33, -6.71967264252500750000e-001) (34, -5.11453362149461240000e-001) (35, -3.23921864763193350000e-001) (36, 1.09436036786974000000e-002) (37, -5.07778053673496930000e-001) (38, 4.25338930091010590000e-001) (39, -6.09649189472370170000e+000) (40, -8.07040839438389450000e-001) (41, -7.23172554913405820000e-001) (42, 1.45613230642158000000e-001) (43, -4.12241495342958510000e-001) (44, -6.81888547896537860000e-001) (45, -5.91452198939148910000e-001) (46, -6.39653281162256280000e-001) (47, -1.19291995823377210000e-001) (48, -9.11745098379017900000e-002) (49, -3.80450639064824010000e-001) (50, 3.46983662019601570000e-001) (51, -4.35278707448533140000e-001) (52, -1.83601817631680660000e+000) (53, -1.82540412309429480000e+000) (54, -1.42889784640670010000e+000) (55, -4.67781212916825780000e-001) (56, -3.18780228525686270000e-001) (57, -3.83399640527766820000e-001) (58, -5.93872079161883450000e-002) (59, 7.04101572991930880000e-002) (60, -5.67828550353022000000e+000) (0, -6.49334879024007660000e-001) (1, -3.04578820467251320000e-001) (2, -4.45172332134149920000e-001) (3, 1.07280774689239840000e-001) (4, 3.71331820864456920000e-002) (5, 1.31334456834198420000e-001) (6, 3.88183599534386300000e-002) (7, -2.75238861931334400000e-001) (8, -1.40276677029163660000e-001) (9, -3.19728000032945440000e-001) (10, -1.44409220418572040000e-001) (11, -6.64184401996542190000e-002) (12, -8.76741283183512520000e-002) (13, -1.25123573694895020000e-001) (14, -1.12932307778634560000e-001) (15, -5.65611212166229620000e-002) (16, -2.53992461841143770000e-002) (17, 3.90311735130292740000e-002) (18, -4.42243213248805710000e-002) (19, -4.77801520553971240000e-001) (20, -3.13398316113541130000e-001) (21, -2.75985680257866910000e-001) (22, -8.59512273485850690000e-001) (23, -3.29148254624537950000e-001) (24, -2.89138323843137040000e-001) (25, -2.03017127918947350000e-001) (26, -8.41641025131704690000e-002) (27, 7.10850865327864460000e-002) (28, 1.49902345983718990000e-002) (29, -4.81628425145572690000e-002) (30, 1.03442086994580020000e+000) (31, 3.14847374578522130000e-002) (32, 2.44859983665167540000e-001) (33, -1.03819223211429490000e-001) (34, 1.05399053165501860000e-002) (35, -1.31525167615892500000e-001) (36, -8.05664074505330060000e-002) (37, -2.61269569366749890000e-001) (38, -1.47355621258980630000e-001) (39, -4.70744337129470560000e-001) (40, -2.17775118212998860000e-001) (41, -2.01554212820510840000e-001) (42, 5.53889789576853880000e-002) (43, -8.63246916746562840000e-002) (44, -1.31004287741967180000e-002) (45, -4.10082703235928810000e-002) (46, -1.35460035028842300000e-002) (47, -7.70958147516610510000e-002) (48, -5.10560217304806270000e-002) (49, -3.63239863948145170000e-001) (50, -3.69652648294340970000e-001) (51, -1.48861937486723470000e-001) (52, -7.77700574878384070000e-001) (53, -1.72870346993222570000e-001) (54, -3.83108393785600440000e-002) (55, -1.07308838991820460000e-001) (56, -1.13705807538841960000e-001) (57, 2.43808849647975840000e-002) (58, -2.29919437019816540000e-002) (59, 3.64501958556502360000e-002) (60, -1.95211965687297640000e+000) (0, 1.34696758048894180000e+000) (1, -4.25416358312265040000e-001) (2, -2.17923075931661630000e-001) (3, -2.61479502172579890000e-002) (4, 1.88390814414303030000e-001) (5, -1.47377551282943700000e-002) (6, 6.98242197904619390000e-003) (7, -6.04475118404313100000e-002) (8, 5.22386624186805810000e-002) (9, -4.33303784494590500000e-001) (10, -1.75183997985703610000e-001) (11, 7.53731935962209660000e-002) (12, -8.99523033606608870000e-002) (13, -1.04486949352281090000e-001) (14, 1.39483358408023450000e-001) (15, -8.14614901676084390000e-002) (16, -3.68837106424470050000e-003) (17, -4.98828909084498280000e-002) (18, 7.65042298781034300000e-002) (19, -8.77683014375058800000e-001) (20, -5.24239537714866530000e-001) (21, -7.14681249935572800000e-001) (22, -6.09735439471844050000e-001) (23, -1.11302971479129710000e+000) (24, -4.36270042013193420000e-001) (25, -3.90030559075384140000e-001) (26, -2.49120400703401130000e-001) (27, -1.63306889520070580000e-001) (28, 7.91503918044327290000e-002) (29, -6.57348642607757940000e-002) (30, -9.17090883491660790000e-001) (31, -7.36192530781061620000e-001) (32, -5.95449103954671430000e-001) (33, -3.06841139386591850000e-001) (34, -8.45237972625988710000e-002) (35, -1.41566232844415160000e-001) (36, -3.48815923166512220000e-002) (37, -5.41302431878683770000e-001) (38, -2.99505956637999730000e-001) (39, -1.88956269399212780000e-001) (40, 4.50191517684867950000e-002) (41, -9.02101775081389780000e-002) (42, 1.13637792605460700000e-001) (43, -1.13854580464606410000e-001) (44, 9.70657039736497610000e-002) (45, 3.64531126413316630000e-003) (46, 8.12702082798940490000e-002) (47, -1.23122813851507390000e-001) (48, 6.66139244015063330000e-002) (49, -6.28846264966743010000e-001) (50, -1.04169167355885540000e-001) (51, -1.15316363791989350000e-001) (52, -5.83769854802938530000e-001) (53, -4.44821486192958800000e-001) (54, -2.44960204096000830000e-001) (55, -3.02737653553075300000e-001) (56, -1.88647043466793960000e-002) (57, 1.79690886804272980000e-001) (58, 1.54357912456362100000e-002) (59, -4.96521003492489400000e-002) (60, -1.58596155710328680000e+000) (0, 3.52868720185006790000e+000) (1, 5.26233914103369730000e-001) (2, 6.32638125694486850000e-001) (3, 1.95462161854429000000e-001) (4, 2.65083914419051050000e-001) (5, 2.74111262521447570000e-001) (6, -7.95837414202651420000e-002) (7, -8.41185933060509260000e-001) (8, -2.78717752483642170000e-001) (9, 1.85136334475253830000e-002) (10, -6.35551339287802610000e-001) (11, -7.04929517424705550000e-001) (12, -4.89872580510123060000e-001) (13, -1.62473091717715930000e-001) (14, -2.63848066947694080000e-001) (15, -3.69463266980423750000e-001) (16, 2.86766265169569210000e-001) (17, 9.56525944899881820000e-002) (18, 1.18317845866423330000e-001) (19, -7.71144967575669190000e-001) (20, -1.30424412318887970000e+000) (21, -1.68974300625644700000e-001) (22, -4.95433484401997580000e-001) (23, -6.12724009205467320000e-001) (24, -1.26600598955104670000e+000) (25, -7.89954506399217940000e-001) (26, -4.30189567530932180000e-001) (27, 1.71146656110236880000e-002) (28, 9.23156752037357360000e-002) (29, 2.59094242142055010000e-002) (30, -1.32825288398589270000e+000) (31, -1.25511311350545580000e+000) (32, 3.00081995604359090000e+000) (33, -1.50118238715723020000e-001) (34, -2.12950828115807820000e-002) (35, -1.17299542907665090000e-001) (36, -5.03479011408671790000e-002) (37, 7.77195061221602420000e-001) (38, -3.12183623842938800000e-001) (39, -1.94828859363526450000e+000) (40, -2.90497675143580490000e-001) (41, -2.48006434661671300000e-001) (42, -2.86107945878808390000e-001) (43, -4.54740020022381950000e-001) (44, -5.49049545073934330000e-001) (45, -2.71179680421826440000e-001) (46, -2.28116935407118800000e-001) (47, 3.48271021227130680000e-002) (48, 1.74862004521256320000e-002) (49, -6.44247254073887050000e-001) (50, -9.43762506255575010000e-001) (51, -3.24733888050306170000e-001) (52, -3.73709286233756100000e+000) (53, -9.60866232160270670000e-003) (54, -7.78935641499765160000e-003) (55, -2.26766701220973870000e-001) (56, -3.33732347043794060000e-001) (57, -4.83946496027969240000e-001) (58, -4.95483405820777990000e-002) (59, -2.33032230034950770000e-002) (60, -3.29722649022226650000e+000) (0, 2.08363296095828820000e+000) (1, -5.44194484348983990000e-001) (2, -5.01688307736025350000e-001) (3, -1.88293480161258530000e-002) (4, 2.80280532437074020000e-002) (5, 1.66420742683309530000e-001) (6, 7.39196788358640330000e-002) (7, -5.70659469027818720000e-001) (8, -5.58152066889836980000e-001) (9, 5.99265798086064950000e-001) (10, 1.68233509397684170000e-001) (11, 1.29374434877278120000e-001) (12, 9.64322336472066970000e-002) (13, -9.69244375726255600000e-002) (14, -1.18621833136921930000e-001) (15, -1.48881437938746230000e-001) (16, -2.73233161391454560000e-002) (17, -7.63020106333778690000e-003) (18, 2.93421926316904150000e-002) (19, -6.62740662394832540000e-001) (20, 3.97701759488538310000e-001) (21, -4.66376594680427300000e-001) (22, -2.53571233301311260000e-001) (23, -9.81183054249345270000e-001) (24, -6.26287528126228230000e-001) (25, -9.97950950499163910000e-002) (26, 7.40503672051847920000e-002) (27, 1.18848594338104880000e-001) (28, 3.23303227473843440000e-002) (29, 4.72290046100170000000e-002) (30, -1.11198659203077250000e+000) (31, -3.32161553095891960000e-001) (32, -1.35197287917551300000e+000) (33, -2.10254165491772230000e-001) (34, -2.22030393035262400000e-001) (35, 7.56501050447508230000e-002) (36, -2.47009281024475060000e-002) (37, -8.75013154169378860000e-001) (38, 5.56850115059455470000e-001) (39, -1.14166331856983970000e+000) (40, -3.17755516793687690000e-001) (41, -5.16735444240027720000e-002) (42, 3.15113911361058540000e-001) (43, 3.00829716583309630000e-004) (44, -3.22463882062309910000e-002) (45, -2.95371373523521890000e-001) (46, -5.19604387368291440000e-002) (47, -6.48921661699748690000e-002) (48, -4.85839543140533510000e-002) (49, -5.07930008977581890000e-001) (50, -1.62568855013853740000e-001) (51, -3.27459010159132370000e-001) (52, -1.29658712346217380000e+000) (53, -3.76633950181025630000e-001) (54, -1.13800329788993700000e-001) (55, 4.30055877886804220000e-001) (56, 3.24233751138928830000e-001) (57, 9.39208952067666080000e-003) (58, -5.81542977415665520000e-002) (59, 9.87243667054826800000e-002) (60, -2.76170176889559160000e+000) (0, 8.33978295161840080000e-001) (1, -4.88205997177405760000e-001) (2, -1.20675187039405950000e-001) (3, 8.57192628303739550000e-002) (4, 8.93572511999164990000e-002) (5, 7.93432007167162450000e-002) (6, -7.15087901280639930000e-002) (7, -4.28137978399540210000e-001) (8, 1.99516788406518930000e-001) (9, 1.88621170607701370000e-001) (10, -1.18621493559110950000e-001) (11, 1.65384885285305070000e-001) (12, -3.23117253100714190000e-002) (13, 4.56105726442544230000e-002) (14, 4.66330108032756570000e-003) (15, -3.19094442819166240000e-002) (16, 4.45949945042070570000e-002) (17, 4.26202004126299760000e-002) (18, 6.05378082957836250000e-002) (19, -5.10206326085864580000e-001) (20, -1.94556883263160980000e-001) (21, -2.58494523204864990000e-001) (22, -5.12416033454987210000e-001) (23, -4.41004354068993130000e-001) (24, -2.20066673198903080000e-001) (25, -5.76306181421299070000e-002) (26, -7.49516165374826580000e-003) (27, -5.99495525167385650000e-002) (28, -6.66137705238725180000e-002) (29, 2.59338382770692990000e-002) (30, -5.88425644791953690000e-001) (31, -4.06880375762230790000e-001) (32, -1.68503587095981760000e-001) (33, 8.51242136596855880000e-002) (34, -1.09747651236836730000e-001) (35, -6.06308651766258450000e-002) (36, -2.33703616763705210000e-002) (37, -2.41008702834854650000e-001) (38, -1.72151520437704680000e-001) (39, 2.45676660247574760000e-001) (40, -6.34007368422041530000e-002) (41, -2.18231117317603450000e-001) (42, 8.28275707189143480000e-002) (43, 8.11146781828486760000e-002) (44, 8.58104962121826980000e-003) (45, -2.90147565602426740000e-002) (46, -8.87415913167438760000e-002) (47, -1.38893870018078750000e-002) (48, 5.20676076966914430000e-002) (49, -4.45378881995503630000e-001) (50, -3.94192297314128750000e-001) (51, -1.80954608290707200000e-001) (52, -9.04618577592343100000e-001) (53, -5.75858777311290870000e-001) (54, -5.79698863254108240000e-001) (55, 2.73666210379072960000e-001) (56, 9.42760122751841180000e-002) (57, -7.24811140296062200000e-002) (58, -3.10058598370233090000e-002) (59, 6.78527842142102600000e-002) (60, -1.86875788014985700000e+000) (0, -2.41015558792779000000e-001) (1, -1.17821434379419900000e-001) (2, -3.35128695486523190000e-001) (3, -5.12587031728739260000e-002) (4, 4.76795954574826470000e-002) (5, -6.12014153271316090000e-002) (6, 2.75146488475002120000e-002) (7, -2.92625587979407520000e-001) (8, -1.92513705268314660000e-001) (9, -1.29859948005206780000e-001) (10, -1.29108156140349370000e-001) (11, -5.25397487155267740000e-002) (12, 5.87848137651163780000e-002) (13, -5.59594261641426090000e-002) (14, -5.10985317493253130000e-002) (15, -1.30694282025222740000e-001) (16, -9.58669111000461090000e-002) (17, -4.35582013373510480000e-002) (18, -5.78157309592349090000e-002) (19, -4.36435558509014220000e-001) (20, -4.01558891587357410000e-001) (21, -3.62131978743714720000e-001) (22, -6.47224579659252170000e-001) (23, -4.66438645609589860000e-001) (24, -2.96090519951944800000e-001) (25, -2.76261992777641530000e-002) (26, -1.94660551607294670000e-002) (27, 2.28089411497682700000e-003) (28, -5.13916023282945390000e-002) (29, 5.17456062398196080000e-002) (30, 1.19370131198626740000e-001) (31, 7.22955165261241480000e-002) (32, 1.34601221401106940000e-002) (33, 2.39595676751510160000e-002) (34, -3.53077726055672020000e-002) (35, 6.82498157148819370000e-002) (36, -4.88525397904595590000e-002) (37, -1.35584607717139950000e-001) (38, -6.38493068796087280000e-002) (39, -2.45324843792398300000e-001) (40, -1.42587530412142010000e-001) (41, 6.52420893120259910000e-002) (42, 8.14095211227005430000e-002) (43, 3.32863751134711490000e-002) (44, -1.21924951909794870000e-001) (45, -9.92816330983076480000e-002) (46, -2.60881665073321550000e-002) (47, -4.34668127521096390000e-002) (48, 3.38032700118249890000e-002) (49, -2.44296886683102540000e-001) (50, -2.66361752485421770000e-001) (51, -2.47015409990837710000e-001) (52, -7.62512796946454570000e-001) (53, -2.30324534071160050000e-001) (54, -7.35498117708626030000e-002) (55, -2.92934136751141360000e-002) (56, -3.87014487415200740000e-002) (57, -2.74023746403798500000e-002) (58, 8.29895031897649460000e-002) (59, 3.77929693131591190000e-002) (60, -1.91185820006516430000e+000) (0, 1.25197187281522200000e+000) (1, -2.63390269092229350000e-001) (2, -8.55170731610903730000e-001) (3, 5.04215749210909500000e-001) (4, 3.93711126810583350000e-001) (5, 1.58435911834512440000e-001) (6, -3.82751470547191270000e-002) (7, 7.74861840904433550000e-001) (8, 2.82551222083251060000e-001) (9, 6.05129356828909230000e-001) (10, 4.58481864380210820000e-001) (11, 5.20355802161820650000e-001) (12, -2.04748759105780580000e-001) (13, -8.95810325491292190000e-002) (14, 2.63108834045184090000e-002) (15, 5.36476654799564950000e-002) (16, 2.54289793970061240000e-001) (17, 5.09503282456878060000e-002) (18, 6.23945063612100300000e-002) (19, -4.29716516226787530000e-001) (20, 8.29552199311015540000e-002) (21, -5.50926688652985110000e-001) (22, -5.31114806285461830000e-002) (23, -1.74283174307829640000e-001) (24, -3.17272404207211480000e-001) (25, -2.04407484618912010000e-002) (26, 6.75521319553163030000e-003) (27, 2.28671978672929900000e-002) (28, 4.17846685913900730000e-002) (29, 4.71740729685734550000e-002) (30, -8.52691232390179080000e-001) (31, -9.88818054608057500000e-001) (32, -3.92416426196466950000e-002) (33, -3.06627374428776740000e-001) (34, -3.88217806188925150000e-001) (35, -7.71172293596702750000e-002) (36, 7.20581065424994450000e-002) (37, -2.90876559912184640000e-001) (38, 1.32607714356169300000e-001) (39, -4.85961193483852140000e-001) (40, -3.62573216622382840000e-001) (41, -5.52460214396634290000e-001) (42, -4.74300677956673160000e-002) (43, -8.82369156945973370000e-002) (44, -7.25237875987728290000e-002) (45, -1.64707333776297820000e-001) (46, -2.05220022108153880000e-001) (47, 3.57180070524456970000e-002) (48, -9.88240362748676840000e-004) (49, -2.36348888004732670000e-001) (50, -5.33922439775608020000e-002) (51, -3.11844539533689190000e-002) (52, -4.07565640389302870000e-001) (53, -1.23121803614185290000e-001) (54, -1.74037067064380550000e-001) (55, 5.08435840095682050000e-002) (56, -1.75450385435533850000e-001) (57, -9.02209565933371620000e-002) (58, -2.71423343888272940000e-002) (59, 5.26245125029163320000e-002) (60, -2.53565205306940960000e+000) (0, -9.95904674883802080000e-001) (1, -2.12340420233789520000e+000) (2, -2.93185862772295280000e+000) (3, -8.12982373299803050000e-001) (4, -5.10011283075099460000e-001) (5, -4.61129209939333540000e-001) (6, 9.11926283120010340000e-002) (7, -1.64710630243695920000e-001) (8, 3.44862042452227290000e-001) (9, -1.33403733956419490000e+000) (10, -3.07991489864906650000e-001) (11, -5.49063748127587960000e-001) (12, 1.72962472905730550000e-001) (13, -5.75416636307218910000e-002) (14, 9.31973410091244260000e-002) (15, -2.78093867311436430000e-001) (16, -1.65540062631565230000e-001) (17, -9.15459737116048470000e-002) (18, -9.62498100719271360000e-002) (19, -1.83139577241467430000e-001) (20, -2.00886533948356070000e-001) (21, -3.77986919508029530000e-002) (22, -1.93083916101541830000e+000) (23, -6.48931378040259350000e-001) (24, -1.85503218888429520000e-001) (25, 2.41900154583728990000e-001) (26, 7.04891129348851120000e-001) (27, -1.75005030681451730000e-001) (28, -6.67602549010553050000e-002) (29, -1.04553224214214420000e-002) (30, 1.56678699671844890000e+000) (31, -6.60339881802376570000e-001) (32, -4.87337035165643580000e-001) (33, 6.45377439379169260000e-003) (34, -7.82095273432877600000e-002) (35, -9.74695353001365780000e-002) (36, -7.17041026309743760000e-002) (37, -1.99135445652268840000e-001) (38, -7.90898880821270470000e-001) (39, 8.07918118768094160000e-001) (40, -3.06507128964959690000e-001) (41, 1.60128552603786560000e-001) (42, -2.23225702120520950000e-001) (43, -1.00800014077404030000e-001) (44, -2.08916735102817640000e-001) (45, -1.53325889599907870000e-001) (46, 3.30796050398431910000e-001) (47, -3.62981671352192030000e-002) (48, -1.98756797538153090000e-002) (49, -1.91619059964129920000e-001) (50, 2.80787203605456390000e-001) (51, -5.79938397128754610000e-001) (52, -2.27273324343047980000e-001) (53, -9.09661642513255870000e-001) (54, -6.46596470120328840000e-001) (55, -4.26951488503417190000e-001) (56, -1.76017427201160980000e-001) (57, 5.51415009346919450000e-002) (58, 3.41247563678734880000e-002) (59, -2.48657230267781420000e-002) (60, -3.68084308049828430000e+000) (0, 2.50773697500111470000e-001) (1, 4.77522981881639970000e-002) (2, -3.14610587911270110000e-001) (3, 2.27250753025349390000e-002) (4, 5.48863269679355640000e-002) (5, -6.89778486099699160000e-002) (6, 8.98193372759124030000e-002) (7, -3.71571289873006530000e-001) (8, -1.67642845901337740000e-001) (9, -2.82766699060239550000e-001) (10, 4.63532167457648550000e-002) (11, 4.07003640663828720000e-003) (12, -1.23075597421493810000e-004) (13, -3.28531936523091070000e-003) (14, -3.25195988735603250000e-002) (15, -8.86847848900894080000e-002) (16, 9.37394000347221980000e-002) (17, -2.52248755606040810000e-003) (18, 8.45570896059226750000e-002) (19, -4.89138602149622460000e-001) (20, -4.86056974528856050000e-001) (21, -3.99243793188769240000e-001) (22, -5.34270137328248020000e-001) (23, -4.43654232281640640000e-001) (24, -2.86418329182010540000e-001) (25, -1.40823128380368950000e-001) (26, -5.37338292725014850000e-003) (27, -3.84496947593029880000e-002) (28, 5.24780281257335450000e-002) (29, 2.60253910128085410000e-002) (30, -3.49909217724393820000e-001) (31, -1.50524915969197680000e-001) (32, -5.50290693823776500000e-002) (33, 8.88854553928650900000e-002) (34, 7.62090064523726280000e-003) (35, -2.59281150680883920000e-003) (36, 5.30944832130444410000e-002) (37, 6.82971787422739370000e-002) (38, 3.06363518485989720000e-002) (39, -3.67851847070983670000e-001) (40, -4.34520017494744240000e-002) (41, 1.10947470957376200000e-002) (42, 8.37751086912952300000e-002) (43, 1.20016159280905530000e-002) (44, 3.26298565160738840000e-002) (45, 5.86979512051004350000e-002) (46, 5.62062681868123330000e-002) (47, -4.23316969311036340000e-002) (48, -7.21716442121030640000e-002) (49, -2.66146954333459580000e-001) (50, -2.36309374699417540000e-001) (51, -2.32565695307413360000e-001) (52, -6.51492550227623090000e-001) (53, -1.88045225435926970000e-001) (54, -2.67151675508752300000e-001) (55, 2.12008426885191840000e-002) (56, -2.58764513815393890000e-002) (57, -1.03740293830728130000e-002) (58, 7.25341807683435040000e-002) (59, 8.48205579045497870000e-002) (60, -1.91087012639759690000e+000) (0, -1.58305564194451720000e+000) (1, -2.29688660790484840000e+000) (2, 2.69283896960202760000e+000) (3, -6.43487141690583960000e-001) (4, -7.22672851724366240000e-001) (5, -4.85863207053994550000e-001) (6, 3.94592291036133250000e-002) (7, -1.34207172306383370000e+000) (8, -4.19008772376603670000e-001) (9, -7.93749800481496790000e-001) (10, -8.25063975039844970000e-001) (11, -1.83547331442740160000e+000) (12, -7.91272838548564670000e-001) (13, -3.12581904712047500000e-001) (14, -6.17998755158616800000e-001) (15, -3.99638643997826730000e-001) (16, -7.17421119388573230000e-001) (17, 3.21839149500405750000e-002) (18, -5.37404084792393170000e-003) (19, -7.57620570668971620000e-002) (20, -2.62801291195374600000e-001) (21, -8.28605576665401020000e-001) (22, -1.86540488080758980000e+000) (23, -1.40431222772526730000e+000) (24, -9.45569357656710910000e-001) (25, -7.55877033617738390000e-002) (26, 2.41663517277001030000e-001) (27, -7.03118681331425080000e-001) (28, -9.30114759953539760000e-002) (29, 6.10778817695063480000e-002) (30, 3.92771501621952400000e+000) (31, 2.08267903385986860000e-001) (32, 3.14561940048486570000e+000) (33, -1.79344305938263750000e-002) (34, 1.66088537264675430000e-001) (35, 1.98218869257637820000e-001) (36, -3.53881841210750280000e-002) (37, -2.03665017662791850000e-001) (38, -2.54689156025994330000e+000) (39, -1.06694039384684000000e+000) (40, -1.18313433651749640000e+000) (41, -1.06827628719761090000e-001) (42, -8.71713448709628300000e-001) (43, -2.27219694415753880000e-001) (44, -5.70719325756154580000e-001) (45, -5.49254370658360470000e-001) (46, 2.95575213104737720000e-001) (47, 1.73310697458497360000e-001) (48, 4.77870740158867630000e-002) (49, -4.09312551100967040000e-001) (50, -5.24940311583683590000e-001) (51, -8.28122660247162970000e-001) (52, -6.01682769398354190000e-001) (53, -2.35559263014953720000e-001) (54, -9.80891328776131940000e-001) (55, -2.57863374678930000000e-001) (56, -1.33763367084665320000e-001) (57, -4.61815463691426650000e-002) (58, -9.96093764842953530000e-002) (59, -5.38024910360945800000e-002) (60, -3.43460696751877850000e+000) (0, -7.04798793028201480000e-001) (1, -4.70890801596974880000e-001) (2, -4.08618207918308940000e-001) (3, 1.89019259478911160000e-002) (4, 1.14656167303892210000e-002) (5, -1.83039712441867490000e-002) (6, -4.04602056810290380000e-002) (7, -4.59652209736931770000e-001) (8, -1.08195635328496660000e-001) (9, -2.65849675752806320000e-001) (10, -8.83187478093959010000e-002) (11, -7.08986306166649730000e-002) (12, -4.39289796290295850000e-002) (13, -2.38885706013200440000e-002) (14, 1.94609464778716380000e-002) (15, 1.39563494302711550000e-002) (16, -1.02137867493008420000e-001) (17, -1.21949730237344950000e-002) (18, -4.69236783503809570000e-002) (19, -5.07160585618068760000e-001) (20, -3.78628097951864200000e-001) (21, -2.09461718273904560000e-001) (22, -6.96801150815591690000e-001) (23, -4.60789409476377310000e-001) (24, -3.43557495586159280000e-001) (25, -8.56733509403187770000e-002) (26, 1.60124375043463820000e-002) (27, 4.46408115234787840000e-002) (28, -7.83081066356317020000e-003) (29, 2.86865238649625100000e-004) (30, 9.17388539254926250000e-001) (31, -6.60337723780574870000e-003) (32, 2.07518749590254320000e-001) (33, -3.60797223571356380000e-003) (34, 3.24360013931998020000e-003) (35, -1.31449792370649580000e-001) (36, -9.60693373690446610000e-003) (37, -7.44019964901208030000e-002) (38, 7.32153869543073490000e-002) (39, -3.00120304240392210000e-001) (40, -6.64602151502916990000e-002) (41, -1.65702040569320540000e-002) (42, -7.15411047778862220000e-002) (43, -8.76674632213141350000e-002) (44, -8.94691287245723970000e-002) (45, -1.43744859937191600000e-001) (46, 2.74989603166593720000e-002) (47, 7.96717067049449030000e-002) (48, 5.56622477381668660000e-002) (49, -4.44664115696447810000e-001) (50, -1.72885913218651740000e-001) (51, -2.22390284012592450000e-001) (52, -8.08110123718145610000e-001) (53, -1.43683978234497330000e-001) (54, 4.54829338165352110000e-002) (55, -4.58594889918247230000e-002) (56, 3.88294250337990410000e-003) (57, -6.85877400488471290000e-002) (58, 8.47106946216626970000e-002) (59, -1.81579592549496740000e-002) (60, -1.94756847341914830000e+000) (0, -1.07270478681899250000e+000) (1, -4.91324466485239770000e+000) (2, -2.87015307481391390000e+000) (3, -1.95942655353587190000e+000) (4, -1.57374735824102040000e+000) (5, -1.57400103773137870000e+000) (6, -8.73840345052485650000e-002) (7, -4.23268868853560080000e-001) (8, -7.35990656743784500000e-001) (9, -8.35405942076203000000e-001) (10, -5.93441143752117760000e-001) (11, -9.05670315449596670000e-002) (12, 8.06524412209633110000e-001) (13, 2.04090671931185820000e-001) (14, 1.43946286259841160000e-001) (15, -6.44469343993983700000e-001) (16, -7.13551517503830500000e-001) (17, -2.20144151951316840000e-001) (18, -3.56166414347427810000e-002) (19, -4.54837511260269500000e-001) (20, -5.70945029051537100000e-001) (21, -7.67829112815543450000e-001) (22, -4.73669503969996630000e-001) (23, -6.66368789932227810000e-001) (24, -5.30171833062522800000e-001) (25, -3.81155035571429600000e-001) (26, 1.94456713002565170000e-001) (27, 2.57571461240922010000e-001) (28, -3.83911138533221670000e-003) (29, 6.85546885215444490000e-002) (30, 1.94152644286890430000e+000) (31, 8.12069042198835160000e+000) (32, 1.16975285243686190000e+000) (33, -5.78598424388731320000e-001) (34, -4.28339929689293460000e-001) (35, -1.31577273274131380000e-001) (36, -5.69091805355128600000e-002) (37, 1.70376866400388040000e-001) (38, -4.82979777490027020000e-001) (39, 4.44220237604340370000e-001) (40, 3.93450170438434940000e-001) (41, 2.39879465791541400000e-001) (42, 3.77624904656223230000e-001) (43, 3.54380840641888070000e-001) (44, 3.89787262137074320000e-001) (45, 1.78558466798244440000e-001) (46, 2.36633091254058210000e-001) (47, 1.77603191362981220000e-002) (48, 2.27992498876542980000e-002) (49, 3.09166973190565460000e-001) (50, 7.51143109411645080000e-001) (51, -2.03304599062573750000e-001) (52, -8.50884518857639490000e-001) (53, 2.49244741886851110000e-001) (54, 1.33819800672442810000e-001) (55, -2.70599731068656260000e-001) (56, 4.05492660216126620000e-001) (57, 3.53449672288549290000e-001) (58, -8.36547864028034380000e-002) (59, 1.27685548777662920000e-002) (60, -4.62469355385114160000e+000) (0, -8.50663877296653490000e-001) (1, -4.58319320226943270000e-001) (2, -2.85659807374897880000e-001) (3, -1.52047040283242700000e-001) (4, -1.60954194596522940000e-001) (5, -6.19971898208839240000e-002) (6, -9.54711928288816130000e-002) (7, -4.54684670263615420000e-001) (8, -4.06749679150406660000e-001) (9, -9.68428998890797250000e-001) (10, -1.78696763948440170000e-001) (11, 2.32774562816210980000e-001) (12, -1.79131427486574240000e-001) (13, -1.54788544039950400000e-001) (14, -2.61480412409522000000e-002) (15, -2.07642938034269390000e-002) (16, 6.00619272488213600000e-002) (17, -1.33645978063653780000e-001) (18, 6.13857023785358070000e-002) (19, -5.76744803971974470000e-001) (20, 1.10979336885611290000e-001) (21, -4.97158991407443460000e-001) (22, -2.58507168950097290000e-001) (23, -9.16321075725944350000e-002) (24, -2.38804199864064740000e-002) (25, -3.06333319603509290000e-001) (26, -7.63219191739513830000e-002) (27, 1.07412702664805380000e-001) (28, -9.11438001862734380000e-002) (29, -3.17810063329488910000e-002) (30, 1.11711267528161270000e+000) (31, 2.31058895937977820000e-001) (32, 5.07772508611988300000e-001) (33, -1.68295171304968180000e-001) (34, -7.05261758022785460000e-002) (35, -3.13575435005092880000e-002) (36, -6.21276864726496570000e-002) (37, -3.12216149370837470000e-001) (38, -5.02081794190730510000e-001) (39, -9.13223264306012970000e-001) (40, -4.88495835533257150000e-001) (41, -3.27071685436498500000e-001) (42, -8.57053404821424420000e-002) (43, -1.52129565162870020000e-001) (44, -4.28668916505070270000e-002) (45, -2.19049208000664520000e-001) (46, -9.66627163120933050000e-002) (47, -7.22550055022006250000e-002) (48, -4.52895582012709660000e-002) (49, -2.56353721637491040000e-001) (50, -6.76535506887012140000e-001) (51, -3.89600289765199340000e-001) (52, -7.04563999130907060000e-001) (53, -3.97463059281082780000e-001) (54, -7.04494296855960430000e-001) (55, -4.59619428890080280000e-001) (56, -1.16943395050547470000e-001) (57, 1.06741016444238650000e-002) (58, -1.47277834225860720000e-002) (59, -1.79870608149030890000e-002) (60, -1.86784173420543050000e+000) (0, -1.06305865827493000000e+000) (1, -3.41771460802711320000e+000) (2, -4.47004518024399820000e+000) (3, -2.24836142983693540000e+000) (4, -2.48985679959694780000e+000) (5, -1.90121604183187200000e+000) (6, 7.71423351338853540000e-002) (7, -2.16138975427050230000e+000) (8, -1.93512878341761390000e+000) (9, -5.19650624250359900000e-001) (10, -3.05903432901459880000e-001) (11, -1.84405235958189830000e-001) (12, 2.13632098375912210000e-001) (13, 3.67409381556423330000e-002) (14, 2.24086066779340250000e-003) (15, -1.11321753944128850000e-001) (16, -4.94620494697199650000e-001) (17, -3.00354525146978300000e-001) (18, -1.44740028937837250000e-001) (19, 5.84505473501139640000e-002) (20, 1.00271881752584060000e-001) (21, 6.30858022953537930000e-002) (22, 3.77695212913438310000e-002) (23, -4.20087858543413410000e-002) (24, -8.34992092994464030000e-002) (25, 6.45760578255090280000e-002) (26, 1.51123226592561440000e-001) (27, -9.39843110796153990000e-002) (28, 3.86535650291079950000e-002) (29, 9.24865736437823220000e-002) (30, 1.95998127270463090000e+000) (31, -2.65363195968727310000e+000) (32, 1.95144017810500090000e-001) (33, -1.12634680974914510000e-001) (34, 1.53116544617455650000e+000) (35, 3.18491297709981620000e-003) (36, 4.24133307101328680000e-002) (37, -2.57618674219123660000e-001) (38, -2.35513528224914890000e-001) (39, 4.48147521578496910000e-001) (40, 9.36780254619880850000e-002) (41, 2.92138932517185260000e-001) (42, -4.74407474695494710000e-001) (43, 5.52040637151084980000e-002) (44, -3.68189085443048000000e-002) (45, -6.99216709752102090000e-002) (46, 2.37231222771024570000e-001) (47, 1.39232154140335020000e-001) (48, 9.24263062956353220000e-002) (49, -7.40595339931714450000e-002) (50, -2.78077100887781160000e-002) (51, -4.72635519542741540000e-002) (52, 2.66799857041557300000e-002) (53, 4.18821961257594480000e-003) (54, 1.71118168772407990000e-002) (55, -2.17989022599872910000e-002) (56, 7.14528906328059520000e-002) (57, -1.30609873683809360000e-001) (58, 3.19152836786997800000e-002) (59, 9.33593763911630960000e-002) (60, -8.11564135466953610000e-001) (0, -2.14448164002532030000e-001) (1, -1.47323926091714910000e-001) (2, -3.38723860082445320000e-001) (3, 4.17611826670526430000e-002) (4, -8.67430601300302060000e-002) (5, 7.68899726604420080000e-002) (6, 6.14318856810314170000e-002) (7, -3.56725564893921930000e-001) (8, -2.44532290551385310000e-001) (9, -1.43618922747947490000e-001) (10, -1.69195440439268460000e-002) (11, -2.07814933189432890000e-001) (12, -1.37494721670559570000e-001) (13, 2.07492307542456110000e-002) (14, -1.08707396567832030000e-001) (15, -3.54406471442671530000e-002) (16, -1.04875084422308240000e-001) (17, 2.64206724352256670000e-002) (18, -2.78700239272544890000e-002) (19, -4.36903492378713290000e-001) (20, -3.55942896664192100000e-001) (21, -2.62076673095937460000e-001) (22, -6.12683626253763600000e-001) (23, -5.49554237652220560000e-001) (24, -3.28063907653123380000e-001) (25, -6.95814204655884620000e-002) (26, 2.98374075846544180000e-003) (27, -6.78021100623186770000e-002) (28, 3.51806645867327460000e-002) (29, -9.76318373923277250000e-002) (30, 1.11888321258446970000e-001) (31, -3.54378014322838520000e-002) (32, 1.38781257319452620000e-001) (33, 2.00216351023554860000e-003) (34, -1.97132970834068380000e-002) (35, -1.08027931877112320000e-001) (36, 6.29089364842911890000e-002) (37, -1.71503127808848800000e-001) (38, -1.57303848700520100000e-002) (39, -3.68373751131669150000e-001) (40, 2.41527320520820840000e-003) (41, -1.37353153549361090000e-001) (42, 7.08495434225013130000e-002) (43, 1.91906853848862890000e-002) (44, -8.06704327721063790000e-002) (45, -1.17081827487419920000e-001) (46, 2.09327064934512750000e-002) (47, 9.58436240661111330000e-002) (48, 5.87855571628744590000e-002) (49, -3.16796906193600010000e-001) (50, -2.59683369876481380000e-001) (51, -1.49614050758678620000e-001) (52, -7.22431365362077860000e-001) (53, -1.12520213675911130000e-001) (54, -8.65106307782820410000e-002) (55, 9.54307255293568480000e-003) (56, -1.02724583509413590000e-001) (57, -9.62763838478513100000e-002) (58, -5.15197761583294780000e-002) (59, 4.97009284749765360000e-002) (60, -1.89455673301405090000e+000) (0, -2.13827522111678020000e-001) (1, -1.60523478465300210000e-001) (2, -4.06391103706313820000e-001) (3, -3.56985607038721870000e-002) (4, 2.44679930514451070000e-003) (5, -1.68266890413246400000e-002) (6, 6.99951182305085240000e-002) (7, -3.48781023437901350000e-001) (8, -8.56466402002413200000e-002) (9, -1.46216745437039110000e-001) (10, -7.41546507937671520000e-002) (11, -1.85795978903076090000e-001) (12, -8.84181574284558830000e-003) (13, -4.63737757176292400000e-002) (14, 2.67467721338981130000e-002) (15, 6.59543055782399550000e-003) (16, 3.07267480757788880000e-002) (17, -9.59065392470772190000e-002) (18, 1.76578836432922080000e-003) (19, -4.89262204810252680000e-001) (20, -3.11789386180109100000e-001) (21, -3.86665394094459600000e-001) (22, -6.78704989138334440000e-001) (23, -4.86106212034826850000e-001) (24, -2.90299810705990200000e-001) (25, -1.31711031939095390000e-001) (26, -7.99527182878369130000e-002) (27, 7.07607198044540170000e-002) (28, -3.59741216298061770000e-002) (29, -2.29370120605381090000e-002) (30, 6.05074292819708990000e-002) (31, -9.94155467366289870000e-002) (32, -1.12923632246131250000e-002) (33, -5.91522911284694950000e-002) (34, 4.18053612197159180000e-002) (35, 6.17141727854660720000e-002) (36, -3.37524419092005700000e-002) (37, -1.03828362525255280000e-001) (38, -5.44047826916175950000e-002) (39, -3.50545267132460430000e-001) (40, -3.91823685722936520000e-002) (41, -3.11468360871275970000e-002) (42, -8.56144140242339060000e-002) (43, -1.00283113080124830000e-001) (44, -7.85655464993311460000e-002) (45, -4.35480424429463410000e-002) (46, -4.35590070772267770000e-002) (47, -9.17840648959727530000e-002) (48, 6.04432788958216490000e-002) (49, -2.40230216690792670000e-001) (50, -2.82070068019424690000e-001) (51, -1.85021526709006620000e-001) (52, -7.29203676776518090000e-001) (53, -1.58846533450364450000e-001) (54, -7.58568095456647470000e-002) (55, -2.18899741227395400000e-002) (56, 2.74029519346898480000e-002) (57, -9.77682698540385530000e-002) (58, -5.85998543888308630000e-002) (59, 4.56970221653136830000e-002) (60, -1.91300060050210030000e+000) (0, -8.21585398507161110000e-002) (1, -1.27077681848146470000e-001) (2, -4.09711797513783500000e-001) (3, -1.47271380790967040000e-002) (4, 8.50540289007201410000e-002) (5, -4.39564812205032460000e-002) (6, 1.69067385331800320000e-003) (7, -4.27081836905196630000e-001) (8, -2.08508793191180320000e-001) (9, -1.78385618848608100000e-001) (10, -1.44999112988510070000e-002) (11, -1.73414785593228290000e-001) (12, -7.27050219138899830000e-003) (13, 3.23692917944440120000e-002) (14, -7.92107282900243740000e-002) (15, -8.40160015605221630000e-002) (16, -1.70685410144774120000e-002) (17, -1.20831277322567540000e-002) (18, -3.81210536345470210000e-002) (19, -4.91136799019858070000e-001) (20, -3.30048331914711280000e-001) (21, -3.34017602233723900000e-001) (22, -5.42194565908083240000e-001) (23, -4.14451884498195310000e-001) (24, -3.05366830495843570000e-001) (25, -1.07802222671870630000e-001) (26, -4.00594582517150850000e-002) (27, 6.81729693193064980000e-002) (28, 1.63696291501764790000e-002) (29, -2.40905765308525590000e-002) (30, -6.45850188078711390000e-002) (31, -1.16497171121030130000e-001) (32, 3.59664025170492520000e-002) (33, -9.32139448500125810000e-002) (34, -8.08449201918357290000e-002) (35, -1.91209045285528030000e-002) (36, -1.57653810942974810000e-002) (37, -1.71874595631968250000e-001) (38, 1.15418790223453820000e-002) (39, -3.78927432001128610000e-001) (40, -3.98976967304715200000e-002) (41, 5.81138809971570250000e-003) (42, 5.16548819589236420000e-002) (43, -3.43033785589030100000e-002) (44, 2.10039418255585190000e-002) (45, -7.97489155551654730000e-002) (46, -6.64665034454456210000e-002) (47, -4.97574443659290210000e-002) (48, -7.14339654071988740000e-002) (49, -2.86302249533546770000e-001) (50, -2.31731300437912320000e-001) (51, -1.91322782191290290000e-001) (52, -7.45723665171945990000e-001) (53, -2.15480090851854070000e-001) (54, -9.24871028217059690000e-002) (55, -2.30429718582456960000e-002) (56, -1.02867996321039380000e-001) (57, 1.77617647405837290000e-002) (58, -4.58251959953486220000e-002) (59, 3.26782231431934630000e-002) (60, -1.83769381676927580000e+000) (0, -2.02409871673041310000e-001) (1, -1.74135028679457820000e-001) (2, -3.70769519100913100000e-001) (3, -2.09365416479498110000e-002) (4, 7.36950191208916720000e-002) (5, -1.22157921295058480000e-002) (6, 3.90991216763723060000e-002) (7, -3.65148074473770620000e-001) (8, -1.28549293491506820000e-001) (9, -1.79795860549361170000e-001) (10, -5.53760433379119000000e-002) (11, -4.16297192173523190000e-002) (12, 8.98236463190495850000e-002) (13, -7.64647574393059890000e-002) (14, -1.01002308715573590000e-001) (15, -6.79931789115327400000e-002) (16, -6.71094160491295250000e-002) (17, -4.83443177431732500000e-002) (18, -1.00429385499604760000e-001) (19, -4.21336840343861040000e-001) (20, -4.02130968260759110000e-001) (21, -3.42008240114220320000e-001) (22, -6.61929455697176090000e-001) (23, -4.70241782102692190000e-001) (24, -1.90694893985277810000e-001) (25, -2.10480567827093790000e-001) (26, -8.51566186957690850000e-002) (27, -7.73850194123787690000e-002) (28, -4.81872565774210670000e-002) (29, -3.75671392316689890000e-002) (30, 9.96372691796216930000e-002) (31, -7.04840584144150180000e-002) (32, -1.50211633072486920000e-001) (33, 1.83238792373355210000e-002) (34, 1.02407490153366160000e-001) (35, 1.94514488212725980000e-002) (36, -1.94824221653107090000e-002) (37, -1.11902968270500600000e-001) (38, 2.42273719879724830000e-002) (39, -3.09343812090976330000e-001) (40, 6.53871897218250640000e-004) (41, -1.13738644156844110000e-001) (42, -1.90778743790038750000e-002) (43, 5.76902297635791260000e-002) (44, -5.53456462284915020000e-002) (45, 6.42942774069987370000e-002) (46, -5.48732939087022210000e-002) (47, -2.65226637038485440000e-002) (48, 6.35575226730700080000e-002) (49, -3.01354204120259710000e-001) (50, -2.99225165942057390000e-001) (51, -1.69529376724778020000e-001) (52, -8.16473216309573700000e-001) (53, -1.94367757846555990000e-001) (54, -1.63997328277597330000e-001) (55, -5.07910400710580580000e-002) (56, 5.41447181585132390000e-002) (57, -8.92088537705684190000e-002) (58, -1.27746583934822410000e-002) (59, -4.37377936204939030000e-002) (60, -1.85789994773776980000e+000) (0, -3.65877736515068270000e-001) (1, -1.73386835972172750000e-001) (2, -2.54169812941438310000e-001) (3, 1.92504606109641430000e-001) (4, 3.74423267171875640000e-002) (5, 1.46510816963498090000e-003) (6, -1.46911623282903750000e-002) (7, -2.05355735180974500000e-001) (8, -1.18877886612507350000e-001) (9, -1.39527042376340870000e-001) (10, -1.00533492913919160000e-001) (11, -1.99060517698240040000e-001) (12, -1.51559568329622390000e-001) (13, 4.97164944382397150000e-002) (14, 1.22889319035611840000e-002) (15, -1.61884099960508680000e-001) (16, 6.64828734633767380000e-002) (17, -2.44919112760769160000e-002) (18, 2.09130522492853020000e-002) (19, -3.93632112694368990000e-001) (20, -4.07584681041818280000e-001) (21, -3.34305121375994940000e-001) (22, -8.10468565408049460000e-001) (23, -5.50266352905907200000e-001) (24, -2.20836338226574560000e-001) (25, -2.60987909041670410000e-001) (26, -1.79883199059258060000e-002) (27, 7.13995596768902400000e-002) (28, 6.50634775320213520000e-002) (29, 6.45568857275975460000e-002) (30, 4.01006942686365890000e-001) (31, -1.82906109574613380000e-002) (32, 1.21953199201018480000e-001) (33, 1.01629254675715280000e-003) (34, -7.99417499430440240000e-002) (35, -1.27627804221501550000e-001) (36, 1.90002444237507010000e-002) (37, -1.40999479137573600000e-001) (38, -7.08055673557153040000e-002) (39, -5.21579733674405130000e-001) (40, -1.77997816907026290000e-001) (41, 1.32247189701402530000e-003) (42, -8.35502165522137570000e-002) (43, 7.26396109895003500000e-002) (44, -1.35013861811062700000e-001) (45, -2.05723434228434790000e-002) (46, 2.00448447807439480000e-002) (47, 2.55562288147955230000e-002) (48, 3.25112101990943790000e-002) (49, -3.88312191870336000000e-001) (50, -4.62995016408940750000e-001) (51, -1.40892591217994910000e-001) (52, -8.39096938988094680000e-001) (53, -7.04150500025455820000e-002) (54, 5.69212517316524180000e-002) (55, 1.40989948349313790000e-002) (56, -4.16359446988915980000e-002) (57, 3.96365070336316960000e-002) (58, 9.83764663096735600000e-002) (59, -8.46069348544915560000e-002) (60, -1.86129263093888330000e+000) (0, 1.25558299313528530000e+000) (1, 1.47878630002342390000e+001) (2, 1.15877023906510230000e+001) (3, -1.24444431487233250000e-001) (4, -5.86820562601717000000e-001) (5, -8.09452771144398840000e-002) (6, -5.59936531781204390000e-002) (7, 1.63792871209601070000e+000) (8, 9.15156550169665460000e-001) (9, 2.29303312610607920000e+000) (10, 1.65260619715727410000e+000) (11, 2.13669323339290030000e+000) (12, 1.71359036351571460000e+000) (13, 1.94974610014682130000e+000) (14, 1.86859047818628900000e+000) (15, 5.72748816138682230000e-001) (16, 1.63649945423007790000e+000) (17, -1.79777606130480270000e-003) (18, -7.01031553175523600000e-002) (19, 9.96235816195188970000e-001) (20, 1.17283793729068670000e+000) (21, 3.99846755513631410000e-001) (22, -1.28710323429794740000e-002) (23, 1.17301128436299580000e+000) (24, 6.65298009542663720000e-001) (25, 5.99492009847508060000e-001) (26, 1.65435190038544590000e+000) (27, 1.37339325568046270000e+000) (28, 7.06237803492513190000e-002) (29, 5.58471688009376520000e-003) (30, -9.65066556938672940000e-001) (31, -5.73389629374481300000e+000) (32, -3.70739593260458820000e+000) (33, -1.45295487999117400000e+000) (34, -1.20181259703629650000e+000) (35, -1.47301862529717660000e+000) (36, -8.07556164377274400000e-002) (37, -1.54415285430820970000e+000) (38, -1.48546659974143560000e+000) (39, -6.13414866823986270000e-001) (40, -1.22170921645775080000e+000) (41, -8.60272439129390110000e-001) (42, -4.94538581731300160000e-001) (43, -9.10617089365194140000e-001) (44, -8.72843826259775410000e-001) (45, -8.29690065056190030000e-001) (46, -1.98655947881365000000e+000) (47, -1.15463519056412390000e-002) (48, -8.40730284493990950000e-002) (49, -6.58977798516671930000e-001) (50, -7.56853414189656850000e-002) (51, -1.84763234466762040000e-001) (52, -4.64525983193381230000e-001) (53, -7.94027855173812250000e-001) (54, -5.49217079032604190000e-001) (55, -6.33125298158306430000e-001) (56, -9.99366069531316460000e-001) (57, -7.49836703446810080000e-001) (58, -4.66613776484337000000e-002) (59, 4.21997076600746370000e-002) (60, -1.14851795189304160000e+001) (0, -9.21682801040737520000e-001) (1, -3.01696265299849300000e+000) (2, -4.70650578909784570000e+000) (3, -4.83853251985289670000e-001) (4, 1.86920028243276560000e+000) (5, -3.52280525171988270000e-001) (6, -4.38232428405171960000e-002) (7, -1.36897681907264630000e+000) (8, -1.82013884273154350000e+000) (9, -5.86998629554193130000e-001) (10, -1.14729953651944290000e+000) (11, -2.97850095119481070000e-001) (12, -4.10615598218262550000e-001) (13, -6.32361943980884860000e-001) (14, -8.05557657084491450000e-001) (15, -5.06683191052164860000e-001) (16, -1.34673627704151570000e+000) (17, -5.80438501128714560000e-002) (18, -8.20317331400740170000e-002) (19, -2.98778275047366370000e-001) (20, 7.10237813535353480000e-002) (21, 8.28338546213394920000e-002) (22, -6.05206606677458960000e-001) (23, -6.19091107802801520000e-001) (24, -8.84236771095609610000e-001) (25, -4.79576827130963500000e-001) (26, -9.12334715571676670000e-001) (27, -4.78910963683408020000e-001) (28, 2.76794437718308470000e-002) (29, 2.01171877997694540000e-002) (30, 1.17295135565416930000e+000) (31, 1.54076509103882420000e+000) (32, 9.08670735302369260000e+000) (33, -4.81433583445222410000e-001) (34, -2.39337852350652550000e-001) (35, -3.95261795660999170000e-001) (36, 2.51281742025639690000e-002) (37, 8.07247823680862900000e-001) (38, 9.26549821365294620000e-001) (39, 1.88418046645373560000e+000) (40, 1.53689581257823060000e+000) (41, 1.56958917606646060000e+000) (42, 1.67474523017124510000e+000) (43, 1.59199964442362510000e+000) (44, 1.55474544201214230000e+000) (45, 1.83379310472730960000e-001) (46, 9.48366172783847720000e-001) (47, 2.27358421192883630000e-002) (48, 6.44398866864023260000e-002) (49, 1.10478968805472940000e+000) (50, 1.38923072954070110000e+000) (51, 4.60732573711067130000e-001) (52, -8.17391669135399820000e-002) (53, 7.71907804564037850000e-001) (54, 4.66349382652403000000e-001) (55, 7.67553438835636870000e-001) (56, 1.24420132616297920000e+000) (57, 1.15099237769911380000e+000) (58, -3.81164556461044410000e-002) (59, -4.53613288009364620000e-002) (60, -8.75439932841786290000e+000) (0, -1.00498157059025290000e-001) (1, -2.55817076794474680000e-001) (2, -4.10587432932506770000e-001) (3, -1.17849358848764030000e-001) (4, -7.96485816433019630000e-002) (5, 1.66299179581746970000e-002) (6, -6.39648447031504470000e-002) (7, -4.95738951139790270000e-001) (8, -4.55460026922178200000e-002) (9, -1.37383848867616260000e-001) (10, -6.88500382024100080000e-002) (11, -3.11101987171674940000e-002) (12, 7.28780988016808350000e-002) (13, -3.90533776826913340000e-002) (14, -9.28051862604632180000e-002) (15, -4.39819436365362570000e-002) (16, -8.29970352459768330000e-002) (17, -1.38042304143829730000e-002) (18, 6.33396036577710610000e-003) (19, -4.80962939646793370000e-001) (20, -3.76081009517410360000e-001) (21, -4.30503828844446490000e-001) (22, -6.67165729219313050000e-001) (23, -4.18804115997610640000e-001) (24, -1.43505542645778890000e-001) (25, -5.13932023747119200000e-002) (26, -1.21910291460924860000e-001) (27, 4.40707573216993640000e-002) (28, 7.78991710826630880000e-002) (29, 5.79833993015199670000e-004) (30, 4.52701932787958480000e-003) (31, -1.41855611415500070000e-001) (32, -1.32750625450836990000e-001) (33, -9.98982706564082170000e-002) (34, -2.41155501714061250000e-002) (35, -8.06437322360136350000e-002) (36, -9.09301771362152070000e-002) (37, -3.93929135128527900000e-002) (38, -1.17901647626237170000e-001) (39, -2.23364760692011940000e-001) (40, -1.15663489896673880000e-001) (41, -7.90414801446541190000e-002) (42, -7.69248222032523490000e-002) (43, -1.16474655370111570000e-002) (44, -3.24259757923947080000e-002) (45, -1.00708110230585830000e-001) (46, -9.54720905525311550000e-002) (47, -2.36388364743302210000e-002) (48, 4.51891134546403280000e-003) (49, -2.29636380265468650000e-001) (50, -2.62409503302464710000e-001) (51, -1.49376026456501190000e-001) (52, -8.12210506082496340000e-001) (53, -2.69782749091098060000e-001) (54, -1.97613414405906800000e-001) (55, -1.29165416234276490000e-001) (56, -4.72613236652522500000e-002) (57, -1.81697312560582490000e-002) (58, 9.94140639813849700000e-002) (59, -3.81042486146725420000e-002) (60, -1.88287166111925000000e+000) (0, 6.98110753975594520000e-001) (1, -1.81738120296075640000e-001) (2, -2.60489953549893350000e-001) (3, -9.73409340459371370000e-003) (4, -1.32597887317457990000e-002) (5, 1.48157389890061760000e-002) (6, 5.16784675669441640000e-002) (7, -4.12024720400481440000e-001) (8, -1.27020631082724130000e-001) (9, -3.28416970959006850000e-001) (10, -1.55034795824629370000e-001) (11, -2.21227336205459310000e-001) (12, 7.47269219789795520000e-002) (13, -5.68679719954936610000e-003) (14, 6.58845731952519000000e-002) (15, -1.06711347540951730000e-001) (16, -2.29172588299703540000e-003) (17, -6.06798649487641940000e-003) (18, -5.86949033849984430000e-003) (19, -5.03617686249409720000e-001) (20, -4.25179749932737220000e-001) (21, -3.65772708151243080000e-001) (22, -6.47789332447253670000e-001) (23, -3.74917235956257090000e-001) (24, -2.34959776127591890000e-001) (25, -1.83823605731114000000e-001) (26, -9.20874032586566360000e-002) (27, 1.37905235945701680000e-002) (28, 8.48388684516976350000e-002) (29, -1.82495119906889160000e-003) (30, -6.35675550821628630000e-001) (31, -2.24464887351051220000e-001) (32, -2.69954305893787490000e-001) (33, 1.19258510831226680000e-002) (34, -1.07952064570035410000e-001) (35, 8.52456142982528090000e-002) (36, 2.55981449126920780000e-002) (37, -1.04230025198206890000e-001) (38, -1.18440850831998460000e-001) (39, -2.72216547734731700000e-001) (40, -9.89107508095804360000e-002) (41, 9.17286852249754450000e-002) (42, 2.04172659221443790000e-002) (43, 4.52023407990625390000e-002) (44, 4.52976194952804390000e-002) (45, -2.44978879867243770000e-003) (46, 4.13936026662680480000e-003) (47, -3.32379508594675340000e-002) (48, -4.18200183019333750000e-002) (49, -2.15889867050371530000e-001) (50, -1.38783616115553700000e-001) (51, -1.19909130761415450000e-001) (52, -7.85460726239878280000e-001) (53, -2.11394236091991430000e-001) (54, -2.76738093655743310000e-001) (55, -6.19115197145577100000e-002) (56, 6.32483423328175500000e-002) (57, 4.49994959203904100000e-002) (58, -9.88830581140973660000e-002) (59, -4.53552252852205130000e-002) (60, -1.92925449152953980000e+000) (0, 2.97248866298919830000e-001) (1, -3.09506646917799390000e-001) (2, -6.58504640920551390000e-002) (3, 7.69209552029097580000e-002) (4, -4.78813502523995970000e-002) (5, -3.67703591242639000000e-002) (6, 2.01965335040767970000e-002) (7, -3.53111445227297150000e-001) (8, -2.68774123914328480000e-001) (9, -6.51763154240811990000e-002) (10, -9.46945013760067680000e-002) (11, -2.17993728981883070000e-001) (12, -1.05089836969032170000e-001) (13, 1.74850462271562740000e-003) (14, -1.58310178912361100000e-001) (15, 3.21658576334519770000e-002) (16, 5.20235002771713420000e-002) (17, -8.23258473487877700000e-003) (18, -2.10903170948840870000e-002) (19, -4.89326835467898120000e-001) (20, -3.29659454904007610000e-001) (21, -2.76142767513017530000e-001) (22, -4.89580583492542850000e-001) (23, -5.34273082290629420000e-001) (24, -3.31723217167114060000e-001) (25, -2.93838233393024890000e-001) (26, 1.57263894818301460000e-002) (27, -6.18618999560838140000e-002) (28, -5.98571786263164540000e-002) (29, 6.87500010244548320000e-002) (30, -4.35229353197239990000e-001) (31, -3.34917955519263510000e-001) (32, -1.87260763369418690000e-001) (33, 4.88799163003083360000e-002) (34, -2.33076060843753000000e-002) (35, -1.00524268422089740000e-001) (36, -4.50012213736954440000e-002) (37, -2.91256045856588040000e-001) (38, -6.05455543746163120000e-002) (39, -4.20848060392420790000e-001) (40, -8.39656006156929010000e-002) (41, -3.70211772011875200000e-002) (42, 7.20600989555008620000e-002) (43, 4.12766129298665870000e-003) (44, 4.32967544566415230000e-002) (45, -8.22216176316528520000e-002) (46, 4.81100605048188500000e-002) (47, 7.94595231684195460000e-003) (48, -8.33093138207199190000e-002) (49, -1.20000347997921670000e-001) (50, 3.79541979496595410000e-002) (51, -3.93121567713380670000e-004) (52, -6.06528066305991320000e-001) (53, -1.64828837628116510000e-001) (54, -9.01732023749366870000e-002) (55, 4.39487582349391630000e-002) (56, 4.13831269538424700000e-002) (57, 5.32190828475009180000e-002) (58, 1.61132814901066010000e-003) (59, 8.72497571594976760000e-002) (60, -1.87036573152673300000e+000) (0, -6.31488909329485760000e-001) (1, -4.15126994242317860000e-001) (2, -5.22126330357596590000e-001) (3, -1.14780288541851530000e-002) (4, 2.35370419766116230000e-002) (5, -3.85158042323209060000e-002) (6, -8.12377941792874480000e-002) (7, -3.74818361346168860000e-001) (8, -6.26427962771336780000e-002) (9, -1.66696846127405260000e-001) (10, -1.09149342646893650000e-001) (11, -1.76553250211827110000e-001) (12, 3.17724414039732630000e-002) (13, -8.55260863696028910000e-002) (14, -5.10558717514131380000e-003) (15, -1.79399571929188820000e-002) (16, -5.55258740587534420000e-002) (17, -6.02326831222793420000e-002) (18, 1.47515318040578340000e-002) (19, -4.22420330538541830000e-001) (20, -3.66283162186630480000e-001) (21, -2.98405239340125310000e-001) (22, -5.81325474271861430000e-001) (23, -4.42431083072483130000e-001) (24, -3.07074525540103390000e-001) (25, -1.40824788300844990000e-001) (26, 3.20588491861903690000e-002) (27, 3.20493145190780400000e-002) (28, -1.31835939464508560000e-002) (29, -1.31652833993030070000e-002) (30, 7.70684665263793200000e-001) (31, 1.44711154893736370000e-001) (32, 1.60046064454983960000e-001) (33, 4.50524961516611600000e-002) (34, -4.12781489310793740000e-002) (35, 2.86976374180515150000e-002) (36, 4.21447760186310920000e-002) (37, -9.10993968068757880000e-002) (38, -4.96970864384546000000e-002) (39, -3.64949264703946670000e-001) (40, -6.98258795998059760000e-002) (41, 5.24295849705128800000e-002) (42, 3.74462924171150360000e-002) (43, 5.08683994376940350000e-002) (44, 6.00790440803841700000e-002) (45, 8.27408895354074700000e-003) (46, -4.74176829200530850000e-002) (47, 4.46881090642510390000e-002) (48, -3.12867535471050010000e-002) (49, -3.82721662282702550000e-001) (50, -2.47813737437043850000e-001) (51, -3.12371193070192290000e-001) (52, -7.32119093895664320000e-001) (53, -2.68487457681993780000e-001) (54, -1.19946417950363190000e-001) (55, -9.18320372052914420000e-002) (56, -7.10799190618264940000e-002) (57, -5.17092631792436600000e-002) (58, -4.90539558090858920000e-002) (59, 6.25183114784704230000e-002) (60, -1.96619145964720050000e+000) (0, -8.91543552531668500000e-001) (1, -1.89147085356632600000e+000) (2, -1.71705204582567770000e+000) (3, -6.81173470431961410000e-001) (4, -1.27400649005234010000e-001) (5, -4.20429576318978700000e-001) (6, -6.23474130384238380000e-002) (7, 3.77892086875956540000e-003) (8, 1.74264486123907300000e-001) (9, -3.32758738851818060000e-001) (10, -1.12217651381842060000e-001) (11, -4.98294051234866250000e-001) (12, 2.62194637454977660000e-002) (13, -1.08899031962573740000e-001) (14, 2.08913381905102470000e-001) (15, -1.65184481151427200000e-001) (16, -2.70175893842840630000e-001) (17, -3.80899210910710940000e-002) (18, -6.22707866252121200000e-003) (19, 7.93712063493518670000e-002) (20, -8.40047925056974090000e-002) (21, 8.05021836213244690000e-002) (22, -6.35068832553315750000e-002) (23, -1.34207443790168000000e-001) (24, 1.81838866969552930000e-001) (25, 5.69564975247174450000e-002) (26, 3.80588069362912780000e-001) (27, -2.12824278005693780000e-001) (28, -5.84350594645002270000e-002) (29, -3.53088384167676850000e-002) (30, 1.57592204473746240000e+000) (31, 2.62423122075325650000e+000) (32, 1.89534331772766460000e+000) (33, 8.40205142346759080000e-002) (34, -3.72406490866042180000e-002) (35, -1.62947398338060350000e-001) (36, 5.07385261466879460000e-002) (37, 1.32497717396212830000e+000) (38, -2.20652352684536950000e-001) (39, 1.17648667670993480000e-001) (40, 3.90539593983274870000e-001) (41, 5.89771446161468260000e-001) (42, 2.91466964562552830000e-001) (43, -5.85274793826392470000e-002) (44, 3.12818383262357780000e-001) (45, 5.48428551772277490000e-002) (46, 7.79613613406684000000e-001) (47, -4.07394760210295980000e-002) (48, -7.50128270764547490000e-002) (49, 1.77481405225546700000e-001) (50, 3.75350353300402890000e-001) (51, -2.15563188032723650000e-001) (52, -2.03315896429520030000e-001) (53, 3.39922522568644260000e-002) (54, -1.52177846403112400000e-002) (55, -2.39246435250872300000e-002) (56, 3.43388814282127030000e-001) (57, 1.95966233389613890000e-001) (58, -1.68701174388843360000e-002) (59, 3.78723150174664620000e-002) (60, -4.14884957871441170000e+000) (0, -7.50583627383504480000e-001) (1, -1.72070753532484020000e-001) (2, -2.46405150143022940000e-001) (3, 1.11701908933508780000e-002) (4, -2.36530290409513490000e-002) (5, -7.91892314950558700000e-002) (6, -6.18225106868521830000e-002) (7, -1.47714542319628830000e-001) (8, -2.83258992016191400000e-002) (9, -2.51732294563132510000e-001) (10, -5.69179642145758790000e-002) (11, 4.17443477660142250000e-002) (12, -1.57812605963480870000e-002) (13, -8.47390764085017430000e-002) (14, -6.96411494635776900000e-002) (15, -9.14083917440938750000e-002) (16, -8.99406960904946120000e-002) (17, -5.10466696956048040000e-003) (18, 5.08643793915287690000e-002) (19, -4.75725530946010000000e-001) (20, -5.31671119621383580000e-001) (21, -4.13162660376587830000e-001) (22, -7.02386370257403470000e-001) (23, -2.97159041579068690000e-001) (24, -4.90258818274488360000e-001) (25, -1.55996484059606700000e-001) (26, -1.07372072727432840000e-001) (27, -6.34431129828564280000e-003) (28, -3.07556156926693800000e-002) (29, -4.89929206519263970000e-002) (30, 9.32494915699248140000e-001) (31, 4.81190212258987630000e-002) (32, 1.48103791419585240000e-001) (33, -8.04848794688215460000e-002) (34, 8.21546677546534930000e-002) (35, -3.79929489955462340000e-003) (36, -2.72460941559984350000e-002) (37, -1.76935485684096920000e-001) (38, -2.94880785866046770000e-001) (39, -6.26592070668449570000e-001) (40, -1.88059467687697460000e-001) (41, -1.30450928270407550000e-001) (42, -8.50145320785269660000e-002) (43, -7.86548682523793420000e-002) (44, 3.59795014235228700000e-003) (45, 2.23756469075994770000e-002) (46, -8.33007886303291090000e-002) (47, 5.06567652427272470000e-002) (48, 3.79470412514559960000e-002) (49, -5.84226489787712850000e-001) (50, -4.93893356533731180000e-001) (51, -1.61315597145910620000e-001) (52, -1.11526722333444890000e+000) (53, -6.90706738106338230000e-002) (54, 2.95345989401925970000e-001) (55, 4.00000843372526410000e-002) (56, 7.58400261412860710000e-002) (57, -7.83208885373834070000e-002) (58, -4.79736335273628360000e-003) (59, -3.31237797904577750000e-002) (60, -1.75768248666887470000e+000) (0, -1.58591176154540060000e+000) (1, -5.06646702099223930000e+000) (2, -1.68245458649271210000e+000) (3, -1.97131258915379730000e+000) (4, -2.09234464015034800000e+000) (5, -1.79465237576516960000e+000) (6, -7.80883800698575210000e-002) (7, -2.01854632130137010000e+000) (8, -1.67026774603802490000e+000) (9, -6.15850827619011890000e-001) (10, -8.81245642919135100000e-001) (11, -1.34099959581482150000e+000) (12, -1.14909054786237540000e+000) (13, -1.16032565086240580000e+000) (14, -1.48339004196222150000e+000) (15, -5.05587075138960730000e-001) (16, -1.48244629561865150000e+000) (17, -2.35980449315488170000e-001) (18, -1.52303353868056180000e-001) (19, -1.04621984172396170000e+000) (20, -9.87138710282758240000e-001) (21, -5.94454364104087580000e-001) (22, -5.43928307706846080000e-001) (23, -3.37623445124072440000e-001) (24, -7.89980390662255010000e-001) (25, -9.14496349284632190000e-001) (26, -1.31462055040599560000e+000) (27, -1.18596227240605080000e+000) (28, -8.94531263329554350000e-002) (29, 6.02050790221255740000e-002) (30, 2.73876732850669180000e+000) (31, 6.51777220152657040000e+000) (32, 3.79519787502849850000e+000) (33, 2.45918086509742300000e+000) (34, 1.32034063421143080000e+000) (35, 2.25707954966969470000e+000) (36, 5.08056648195633900000e-002) (37, 2.96823823215801850000e+000) (38, 2.99719190176738030000e+000) (39, 1.03355324506742590000e+000) (40, 1.08781456931270060000e+000) (41, 1.35623706922796390000e+000) (42, 9.30690288456363040000e-001) (43, 1.36156961525996770000e+000) (44, 1.31084444635731900000e+000) (45, 8.07095698208862070000e-001) (46, 1.33007583420873820000e+000) (47, 3.32087606314247940000e-001) (48, 1.46338106465498250000e-001) (49, 7.69268319596556840000e-001) (50, 5.85506461896211580000e-001) (51, 7.71171611457569740000e-001) (52, 2.03511191045052190000e-001) (53, 5.92401484636936760000e-001) (54, 2.11869444883770300000e-001) (55, 4.56326752501879540000e-001) (56, 4.14298072912463900000e-001) (57, 6.02665400205513400000e-001) (58, 6.34338388358628440000e-002) (59, -5.96740731548379700000e-002) (60, -2.30714350705904710000e+000) (0, 2.19601349276390470000e-001) (1, -2.29728444190682450000e-001) (2, -2.25862660311791950000e-001) (3, -2.93185698945065960000e-002) (4, -2.91736330028811200000e-002) (5, 6.32427858520318440000e-002) (6, -1.58691408614686220000e-002) (7, -3.37590056431305800000e-001) (8, -1.27548304831849620000e-001) (9, -1.70822110455541910000e-001) (10, -4.79171652854496690000e-002) (11, -5.01149760449156050000e-002) (12, -4.21816947543219790000e-002) (13, -3.88947483322131320000e-002) (14, -9.44609056875976990000e-002) (15, 9.45151092581914850000e-003) (16, 4.84377998617045650000e-002) (17, 7.10308704645251640000e-002) (18, 7.72246415286353400000e-002) (19, -4.79989196715149840000e-001) (20, -3.17951038160579850000e-001) (21, -2.71559210902833300000e-001) (22, -6.38335098438837730000e-001) (23, -4.56874721684047580000e-001) (24, -1.99444067496862580000e-001) (25, -1.43986451038874890000e-001) (26, -6.12671978541579970000e-002) (27, 6.01706526720942670000e-002) (28, 2.89978031664759330000e-002) (29, 2.50244144353928280000e-003) (30, -2.60099984633942460000e-001) (31, -2.06902576368724000000e-001) (32, -5.11396821276262610000e-003) (33, 1.14271291591636130000e-001) (34, 2.87253518780206350000e-002) (35, 4.49422049522873730000e-002) (36, -5.57434090337665110000e-002) (37, -1.74224808321541250000e-001) (38, -1.49460115728407800000e-002) (39, -2.53898762962728510000e-001) (40, -5.47220166354069960000e-002) (41, -7.52495714594402930000e-002) (42, -7.03584437983389150000e-002) (43, -6.65123088501994310000e-002) (44, 9.32916178529833580000e-003) (45, -8.42835131398476380000e-002) (46, 4.51638226435371460000e-002) (47, -8.98314153536090700000e-002) (48, 3.77450806534967080000e-002) (49, -2.64721728607443140000e-001) (50, -3.12167385334251590000e-001) (51, -1.36441163443495300000e-001) (52, -7.74833554830467340000e-001) (53, -1.89316766864858960000e-001) (54, -2.08024366427291550000e-001) (55, -4.73666795441822980000e-002) (56, -4.88895238644041220000e-002) (57, -9.32600183595524300000e-002) (58, -7.79418956926747340000e-003) (59, -1.23718263562295760000e-002) (60, -1.92303910509188250000e+000) (0, 2.23508021816996380000e+000) (1, -6.11250172064744750000e-001) (2, 7.72352383209006230000e-001) (3, 5.44169732787932790000e-001) (4, 3.93120473664333340000e-001) (5, 1.69147947752046170000e-001) (6, 9.94812026542604140000e-002) (7, 1.22259914244929770000e+000) (8, 4.67614664576190330000e-001) (9, 2.85270396751307830000e-001) (10, 1.83738643844861080000e-001) (11, 2.97259623964490520000e-001) (12, -6.67909201366069790000e-002) (13, -1.82500271016066250000e-001) (14, -1.59413742553291240000e-001) (15, -3.16507516630775950000e-003) (16, 4.02198856097874980000e-001) (17, 7.81890710995460920000e-002) (18, 6.02180898335573800000e-003) (19, 1.72718904035875980000e-001) (20, -3.02398066824452970000e-001) (21, -9.33700298273847370000e-001) (22, -1.47102601660195980000e-001) (23, -8.51791498916019680000e-001) (24, -4.78466961558168760000e-001) (25, -6.36829995666140290000e-001) (26, 1.95159912397670000000e-001) (27, 2.16862146786388900000e-002) (28, 3.27148442374891600000e-002) (29, -5.04089362980266740000e-002) (30, -1.42039078933793110000e+000) (31, -1.82061865221674160000e+000) (32, -2.98877486176474580000e-001) (33, -4.34161199732329810000e-001) (34, 2.40292883443402540000e-002) (35, -1.64556728534999720000e-001) (36, 9.34814467054820850000e-002) (37, 2.94891002955944950000e-001) (38, 6.57044380079276350000e-001) (39, -3.17050720834836210000e-001) (40, -1.11819496917360900000e-001) (41, 6.86114511989593110000e-002) (42, 4.18780076588589790000e-001) (43, 1.18865846742929600000e-001) (44, 3.29117721142316520000e-001) (45, -9.25017961578775550000e-002) (46, -4.87821877490851490000e-001) (47, -5.53397378776057730000e-002) (48, 7.47994737664480480000e-004) (49, 1.15670991383788310000e-001) (50, 7.78848700593326310000e-002) (51, 4.78321584051087710000e-001) (52, -3.03969836580207540000e-001) (53, 3.44935250524752370000e-002) (54, -5.06627510847722090000e-002) (55, -9.27500615492587830000e-003) (56, 3.47287739646235520000e-002) (57, -5.02180763915896850000e-002) (58, -4.59411627939516620000e-002) (59, 7.90588390686934870000e-002) (60, -3.56062783221663360000e+000) (0, -1.23448972895724850000e+000) (1, -7.45560287572288540000e-001) (2, -2.90839595043139590000e+000) (3, -5.98936370129928840000e-001) (4, -1.43735276473160760000e-001) (5, 3.42969198560617030000e-002) (6, 1.25793458905718580000e-002) (7, -8.42562818494861700000e-001) (8, -1.71916676829320960000e-001) (9, -4.62472652751586760000e-002) (10, -3.52455808609514750000e-001) (11, -9.25749775995662880000e-001) (12, -5.26765495915759580000e-002) (13, -2.70679430005704880000e-001) (14, -2.34074947004949570000e-001) (15, -1.72001949033439160000e-001) (16, -8.64653109766864160000e-002) (17, 2.02772178863539590000e-002) (18, -1.22979880443055050000e-002) (19, -7.51091237252996980000e-001) (20, -7.42212473222588760000e-001) (21, -1.22042081800470550000e-001) (22, -1.20754466343599990000e+000) (23, -1.02851548406990840000e+000) (24, -6.12162186868584260000e-001) (25, -4.96506588620535480000e-001) (26, -2.13090055593023910000e-001) (27, -9.03170106513263850000e-002) (28, 9.05212415832465920000e-002) (29, 5.48522957392378880000e-002) (30, 2.53735315881903610000e+000) (31, -8.02671082069606470000e-002) (32, 9.33849511419889260000e-001) (33, 2.40570612881396890000e-001) (34, 2.46386063723981820000e-002) (35, 2.79892557627526230000e-002) (36, -1.53930666356245640000e-002) (37, 5.33488128193054360000e-001) (38, -2.62712989461991950000e-001) (39, -2.54072529841585570000e-001) (40, 3.27983017798096340000e-003) (41, 3.34169440681153120000e-001) (42, 3.48045077747449260000e-002) (43, -9.26006198271093900000e-002) (44, 5.32975325812280350000e-001) (45, 2.16172096278692550000e-001) (46, 4.09884683409429060000e-002) (47, 1.57714521456092140000e-003) (48, 2.81043078725532610000e-002) (49, -9.35304910037954570000e-001) (50, -3.44273477028512300000e-001) (51, -8.83027710659144980000e-001) (52, -9.24456410503144980000e-001) (53, -1.35951501441260800000e+000) (54, -4.98106467320583950000e-001) (55, -1.52052590517283120000e-001) (56, -2.09677740051339350000e-001) (57, 4.21090958004598640000e-002) (58, -3.50158696624021100000e-002) (59, -2.19482425145542950000e-002) (60, -2.51407751575088150000e+000) (0, 3.65919115691386710000e+000) (1, -7.77147010961868220000e-001) (2, 9.87674952711906970000e-001) (3, -6.93005605761533030000e-001) (4, 1.22695077836408910000e-001) (5, 2.46813665651172690000e-001) (6, -4.85656745518099340000e-002) (7, -1.25698327898008700000e+000) (8, -1.43517077791092860000e+000) (9, -6.34047757348153110000e-001) (10, 1.53332063132482150000e-001) (11, -2.92281740829922200000e-002) (12, 1.88384906701028000000e-001) (13, 1.90093944976078820000e-001) (14, -5.93661095645052540000e-001) (15, -1.20851058078494060000e-001) (16, 5.78083537220152040000e-001) (17, 2.08921817143394720000e-001) (18, -3.43977099116933370000e-002) (19, -3.17172285465414580000e-002) (20, 3.12318959014350920000e-001) (21, -1.23987655957420720000e+000) (22, -3.02770410691843350000e-001) (23, -1.04982392788380440000e+000) (24, -1.05026923415274640000e+000) (25, -2.99317445279579260000e-001) (26, 3.31576751248112260000e-001) (27, 1.44523482353537150000e-001) (28, 6.19934091268987690000e-002) (29, 9.22912611408719390000e-002) (30, -1.87929071960706270000e+000) (31, 2.35164524575207340000e-001) (32, 4.60824728162125920000e+000) (33, 1.40276286829274510000e-003) (34, -1.44076816642326130000e-001) (35, 5.86800835002562120000e-002) (36, 1.87988284051243680000e-002) (37, -1.89413529122897750000e+000) (38, -4.13917228159474070000e-001) (39, -2.78831619157648140000e+000) (40, -1.25336003559413500000e+000) (41, -3.13291033015889300000e+000) (42, -7.13827851108163270000e-001) (43, -8.46570624793442250000e-001) (44, -1.32254190942427250000e+000) (45, -8.85376198121781590000e-001) (46, -8.00759187360380540000e-001) (47, -1.14960667734118670000e-001) (48, -2.04643232640423570000e-002) (49, -5.27947588882930360000e-001) (50, -2.56714699403736530000e-001) (51, -3.16303862154109720000e-001) (52, -3.46252156144818190000e-001) (53, -3.05949710829460150000e-001) (54, -3.75285186834594200000e+000) (55, -2.52056570841661110000e-001) (56, 9.75110762829429210000e-002) (57, -8.66386675112792220000e-001) (58, 5.62744149010541150000e-003) (59, 7.48840343189840500000e-002) (60, -3.62031157170714350000e+000) (0, -7.79851624627816760000e-001) (1, -6.45149125026665880000e-001) (2, -4.70771676785603610000e-001) (3, 1.11450031965721360000e-001) (4, -1.23413575081017340000e-001) (5, -3.92615671086322810000e-002) (6, 2.97851566938334140000e-003) (7, -3.36550999331296010000e-001) (8, -3.19893015470679330000e-001) (9, -3.12743020444539610000e-001) (10, -2.83884077996791570000e-002) (11, -6.31605453535082490000e-002) (12, -1.92415371232554700000e-001) (13, 7.00644364843767130000e-002) (14, -1.24879359705273060000e-001) (15, -2.13514825892621000000e-001) (16, -1.02812494515090720000e-002) (17, -1.91412847480540780000e-002) (18, 6.67513084091391070000e-002) (19, -5.38715058335051620000e-001) (20, -8.18765345508747630000e-002) (21, -3.88928464397682750000e-001) (22, -7.91948090278459470000e-001) (23, -3.27634270681482540000e-001) (24, -3.50491540044956530000e-001) (25, -1.59239646615877310000e-001) (26, -1.48318877077813440000e-001) (27, -5.55079183538856190000e-002) (28, -1.59912111757876120000e-002) (29, 4.89807136204944980000e-002) (30, 1.04505478460666600000e+000) (31, 1.48700088610747100000e-001) (32, 6.92995652047618150000e-001) (33, 2.45904365616285770000e-002) (34, -5.98683758390367580000e-002) (35, -1.47403225611383720000e-001) (36, -8.74267591152602110000e-002) (37, -1.07964732195621930000e-001) (38, -1.47972874141434860000e-002) (39, -5.83542967394868770000e-001) (40, -1.15816039102421610000e-001) (41, -1.85923962416322950000e-001) (42, -1.12572865312646060000e-001) (43, -2.26493457075200750000e-002) (44, -1.52673377601395520000e-001) (45, -1.51115545209830060000e-001) (46, -5.16145412104600420000e-003) (47, -5.88678976806683300000e-002) (48, 8.66937223312261830000e-003) (49, -4.05315735824346600000e-001) (50, -5.18164049495564830000e-001) (51, -2.75773485327453660000e-001) (52, -5.69403033845301660000e-001) (53, -2.15941904486711800000e-001) (54, -4.70869734342363180000e-002) (55, -2.69342280603245830000e-001) (56, 6.58313568633097770000e-003) (57, -8.08223661941246120000e-002) (58, 3.59497075669423790000e-003) (59, -5.33874519674100160000e-002) (60, -2.05603139064047950000e+000) (0, -1.20258741515663690000e+000) (1, -6.03768478884730510000e-001) (2, -2.53433526689119400000e+000) (3, -2.91618986150108950000e-001) (4, -1.48641410313036070000e-001) (5, -1.64124895630261220000e-001) (6, -4.88464362747436100000e-002) (7, -3.79578774406268420000e-001) (8, 1.53676211955092930000e-001) (9, -1.50097772316490820000e+000) (10, -5.87802004084600700000e-001) (11, -1.90547431741902640000e-001) (12, -2.04171905171680380000e-001) (13, -1.05469122668049500000e-001) (14, -2.31110127372041620000e-001) (15, -5.15123504455750060000e-001) (16, 4.80525229362740590000e-002) (17, -1.39241039922241350000e-001) (18, 6.92278945063633240000e-002) (19, -9.23625355503554290000e-001) (20, -1.30998336229495570000e+000) (21, -2.76128576972135050000e-001) (22, -1.22464005015333540000e+000) (23, -8.67864105158317330000e-002) (24, -1.74115623966647230000e-001) (25, -3.33848466884323740000e-001) (26, -1.22849774440723660000e-002) (27, -6.19805169211252870000e-002) (28, 1.17004396274751340000e-002) (29, 9.66064467520482140000e-002) (30, 2.60488466177181180000e+000) (31, 2.07692164965196130000e-001) (32, 6.03727437769857930000e-001) (33, -1.89602817879936350000e-001) (34, 1.43694417507861300000e-001) (35, 1.08478946921609710000e-002) (36, -9.09790052619428020000e-002) (37, -1.09674859571401620000e+000) (38, -8.08157828045896420000e-001) (39, -7.81679705995371290000e-001) (40, -1.19943007492432180000e-001) (41, -7.22238713075861630000e-001) (42, 1.45269434702243570000e-001) (43, -2.19941011088408740000e-001) (44, 5.12186672973306830000e-002) (45, 2.71433149755723190000e-001) (46, -1.46489136942099530000e-002) (47, 1.19817928723875950000e-001) (48, 3.51663233340009490000e-003) (49, -7.52510743211537880000e-001) (50, -2.31754793890152610000e-001) (51, -5.29004356060098880000e-001) (52, -1.52578374815767570000e+000) (53, -1.01823610246544890000e+000) (54, -9.03675226783224320000e-001) (55, 5.72763137862087670000e-002) (56, -8.31213787031741810000e-002) (57, -2.75852916536446330000e-002) (58, 9.09301771362152070000e-002) (59, 8.64563001164242450000e-002) (60, -2.53633860986304430000e+000) (0, -9.52019735649155430000e-001) (1, -1.94736766238116070000e+000) (2, -2.67363886139240270000e+000) (3, -2.52975475531091840000e-001) (4, -6.35310241144981140000e-001) (5, -6.03858974608502910000e-001) (6, 6.16455087310896490000e-004) (7, -1.47948994423938470000e+000) (8, -1.04206007943237760000e+000) (9, -3.05371476911833030000e-001) (10, -5.95866358437938890000e-001) (11, -1.80120025805375560000e-001) (12, -2.98603026413151670000e-001) (13, -6.62951914629799630000e-001) (14, -2.15974852616229690000e-002) (15, -6.62126447290074190000e-001) (16, -3.36613154077483100000e-001) (17, -1.37082057120472420000e-001) (18, 3.45209323705076360000e-002) (19, -4.95364876689770530000e-001) (20, 2.49339343590287280000e-001) (21, 4.62138234514876900000e-001) (22, -1.27937083444198760000e+000) (23, -2.38271057756679740000e+000) (24, -1.24046432990633400000e+000) (25, -7.81997704635261750000e-001) (26, -7.79763893865142580000e-002) (27, -3.28783986191825470000e-001) (28, -8.66271985564708300000e-002) (29, -3.43078618393519720000e-002) (30, 1.76289612569514050000e+000) (31, -8.00173727196403560000e-001) (32, 3.30138860538966790000e+000) (33, -2.64318571498846740000e-002) (34, 2.42238142542679290000e-002) (35, -1.09995403019086280000e-001) (36, 6.19934091268987690000e-002) (37, -3.76230262289804330000e-001) (38, 7.86197564474260370000e-001) (39, 1.87184594752776890000e-002) (40, -5.17141360953734090000e-001) (41, -5.91739890265486010000e-001) (42, 1.44622381865003400000e-001) (43, -1.69168658938639940000e-001) (44, -1.27884062178011630000e-001) (45, -1.85490207172130270000e-001) (46, -2.06431539996662390000e-001) (47, -1.58750078512709530000e-002) (48, 1.11447345717615190000e-001) (49, -1.96823656282880260000e-001) (50, -1.01190147350888850000e+000) (51, -1.18988521779063320000e+000) (52, -4.64403835341422270000e-001) (53, -2.58269197723990540000e-001) (54, 2.97457004510622620000e-001) (55, -8.27315617631860340000e-001) (56, 1.69294406059219190000e-001) (57, -5.59417127526053300000e-002) (58, -9.42871107799874150000e-002) (59, -2.95166020023316380000e-002) (60, -3.49345779171990770000e+000) (0, -9.07676688022300500000e-001) (1, -1.79746913091570480000e-001) (2, 3.71220213620703840000e-001) (3, 2.27262245138341530000e-001) (4, -1.02433312794023400000e-001) (5, -3.99835907959538370000e-002) (6, -2.94189457508764460000e-002) (7, -1.12329194957844500000e+000) (8, -6.66951848387527970000e-001) (9, -6.00012023162013390000e-002) (10, -2.75447629871602150000e-001) (11, -3.22102947853139420000e-001) (12, -6.56549462923787240000e-002) (13, -1.70133183140888570000e-001) (14, -2.09470749957663960000e-001) (15, -1.42205248773285440000e-001) (16, -2.09443715957413550000e-002) (17, -8.19118859988909320000e-002) (18, 4.76867977927666120000e-002) (19, -5.79517566750064490000e-001) (20, -5.96886853632051410000e-001) (21, -5.36971895487444400000e-001) (22, -2.44861454751881810000e-001) (23, -9.19274216654637820000e-001) (24, -6.61385910026754840000e-001) (25, -2.97436919207829440000e-001) (26, -2.50453620201306240000e-001) (27, 9.11489324292686500000e-003) (28, -6.83654795343500150000e-002) (29, 7.67272960652007900000e-002) (30, 1.50777481490221170000e+000) (31, -2.87175258808484770000e-001) (32, 5.45877088408023850000e-001) (33, 7.18295637362404840000e-002) (34, 1.88802871341354830000e-002) (35, -1.79416296006055770000e-001) (36, -8.47717297788221910000e-002) (37, -2.80174026187902050000e-001) (38, 3.31475983835398340000e-001) (39, -8.89253863121611590000e-001) (40, -1.21049279634899020000e-001) (41, -2.83568521233537100000e-001) (42, 1.08807299363303510000e-001) (43, -1.29022836531984900000e-001) (44, 